<?xml version="1.0"?>
<opencv_storage>
<my_svm type_id="opencv-ml-svm">
  <svm_type>C_SVC</svm_type>
  <kernel><type>LINEAR</type></kernel>
  <C>1.0000000000000000e-02</C>
  <term_criteria><epsilon>1.1920928955078125e-07</epsilon>
    <iterations>1000</iterations></term_criteria>
  <var_all>4356</var_all>
  <var_count>4356</var_count>
  <class_count>2</class_count>
  <class_labels type_id="opencv-matrix">
    <rows>1</rows>
    <cols>2</cols>
    <dt>i</dt>
    <data>
      -1 1</data></class_labels>
  <sv_total>1</sv_total>
  <support_vectors>
    <_>
      1.71731785e-02 1.30649701e-01 1.33584499e-01 3.26243835e-03
      -2.03582615e-01 4.44779210e-02 1.13179192e-01 -2.80730473e-03
      -7.42801577e-02 -2.66980659e-02 8.03733394e-02 4.00517322e-02
      -8.88194367e-02 9.84200090e-02 -1.89397279e-02 4.55423705e-02
      -4.27050069e-02 -9.30071548e-02 3.22848074e-02 1.10397540e-01
      1.12310015e-01 -4.99392599e-02 -2.61286527e-01 4.22532037e-02
      9.92830023e-02 2.68539749e-02 9.88380238e-03 1.92875610e-04
      2.61104573e-02 1.65165830e-02 -8.10743570e-02 2.26009637e-02
      -9.99997277e-03 6.71418756e-02 4.52578766e-03 1.51018444e-02
      -4.48490866e-03 6.02709763e-02 1.05251465e-02 -1.14514887e-01
      9.44008678e-03 -8.15645978e-02 2.61953790e-02 -2.33288985e-02
      -5.97791411e-02 -4.97647040e-02 6.34923875e-02 3.27699743e-02
      -1.11564159e-01 1.65133309e-02 -2.48931162e-02 6.29674047e-02
      1.07849790e-02 -3.21945809e-02 1.59696210e-02 2.72135902e-02
      2.91913804e-02 -6.59429356e-02 6.45380700e-03 -2.87590977e-02
      6.63802326e-02 2.62320954e-02 8.66769478e-02 2.78756972e-02
      1.02353226e-02 6.82087317e-02 -4.68069874e-02 3.62892970e-02
      3.68697150e-03 5.86306341e-02 8.43306817e-03 4.24626321e-02
      -1.21875685e-02 4.87077385e-02 2.22911853e-02 -1.20796748e-01
      2.07474232e-02 -3.93033102e-02 6.47374541e-02 -6.26728917e-03
      -8.78940802e-03 -1.55148841e-03 6.28246292e-02 5.56477644e-02
      -1.06016450e-01 -5.32772567e-04 -2.04793755e-02 7.84235373e-02
      6.48573879e-03 -1.74137764e-03 -5.24864998e-03 1.49633521e-02
      5.28690591e-02 -6.32918552e-02 -3.23970127e-03 -1.27060637e-02
      2.27212552e-02 -1.43495090e-02 1.08458633e-02 7.78263994e-03
      3.46191190e-02 6.80952221e-02 -5.97233400e-02 -7.64299883e-04
      -1.83417462e-02 -8.04142188e-03 -4.22459990e-02 4.37973160e-03
      2.45652045e-04 8.35397318e-02 4.59404327e-02 -7.59703889e-02
      1.16074702e-03 -1.29273757e-02 5.90858534e-02 6.49594469e-03
      -1.84950065e-02 -2.76716053e-02 1.07844681e-01 6.33428842e-02
      -6.42329231e-02 2.60277744e-02 -2.19102129e-02 8.11176449e-02
      4.55695055e-02 -6.15051063e-03 2.79602800e-02 1.32500771e-02
      4.18238081e-02 -5.89206629e-02 9.36697703e-03 -1.02203889e-02
      6.56731846e-03 -3.29470187e-02 -1.70250481e-03 1.00739058e-02
      9.96133778e-03 3.46780941e-02 -5.64323775e-02 1.33450218e-02
      -2.42924858e-02 5.49581721e-02 -4.03827280e-02 6.28533633e-03
      -2.94408370e-02 7.73953944e-02 3.36627439e-02 -6.10603318e-02
      -1.68339107e-02 -3.71785052e-02 8.78261700e-02 2.40758955e-02
      -2.62864176e-02 -2.91224457e-02 7.68356696e-02 6.32703081e-02
      -6.29311427e-02 -1.84379034e-02 -2.38241777e-02 8.79932269e-02
      1.78837348e-02 1.12282047e-02 -2.53191832e-02 -3.76004763e-02
      3.63765610e-03 -4.11526710e-02 2.57063843e-03 -7.24054128e-02
      3.98486406e-02 -1.32062407e-02 1.11355549e-02 -5.31524373e-03
      -4.02675802e-03 7.80377956e-03 -1.78986229e-02 5.67016285e-03
      -5.47400229e-02 3.04064211e-02 -4.32600491e-02 1.55854924e-02
      -9.37507488e-03 9.86794680e-02 3.94065231e-02 -9.33703259e-02
      -4.31449749e-02 8.45730957e-03 6.69793561e-02 -1.21060982e-02
      6.98906556e-03 -6.03921264e-02 8.18808898e-02 1.38564669e-02
      -7.65630603e-02 1.96197815e-02 3.29033919e-02 5.93791939e-02
      3.86794582e-02 -2.60503218e-03 1.75512265e-02 -4.50131483e-02
      2.77789310e-03 -6.81687817e-02 -1.52842682e-02 -3.50093693e-02
      7.22396513e-03 -7.35575929e-02 3.93688828e-02 2.77708913e-03
      -2.57258415e-02 -1.64822210e-03 -7.01561794e-02 -2.92430520e-02
      -5.05429953e-02 3.29556614e-02 -5.60480095e-02 4.87054698e-02
      -4.45663892e-02 2.72393078e-02 -2.21586414e-03 -3.67243364e-02
      3.98489460e-02 3.87626886e-02 5.87224402e-02 -4.26937453e-03
      -1.85447577e-02 -8.11667442e-02 3.74739021e-02 -7.53722945e-03
      -2.65457034e-02 -4.22676420e-03 1.14138536e-02 3.63790356e-02
      2.28333361e-02 -3.39731164e-02 5.78313470e-02 -3.50122638e-02
      -2.61332304e-03 -3.97268496e-02 2.74121016e-03 -1.86831634e-02
      5.68420775e-02 -4.23404984e-02 7.62011930e-02 3.12829926e-03
      -8.84269085e-03 -2.79337149e-02 -4.46172580e-02 -1.95960533e-02
      -2.33949255e-02 1.71416923e-02 -4.42517251e-02 2.51175389e-02
      -7.93839991e-02 5.06585985e-02 -1.35708675e-02 -3.33623886e-02
      7.87304062e-03 1.81605760e-02 4.44294550e-02 6.37935773e-02
      -5.56410104e-02 -3.32295187e-02 3.93013731e-02 -4.58461093e-03
      -7.74838123e-03 3.44753973e-02 3.63757983e-02 5.20950332e-02
      7.26933703e-02 -4.60866727e-02 -2.81170700e-02 3.50249931e-03
      -1.13619175e-02 -3.96607667e-02 -1.52024895e-05 -3.81824672e-02
      1.09713702e-02 -8.33733100e-03 3.22048031e-02 9.55102965e-04
      3.46960798e-02 2.10469570e-02 -2.10259650e-02 2.58304402e-02
      -2.89357360e-02 2.13480052e-02 -2.68276576e-02 1.36375707e-02
      -8.84284973e-02 3.39062922e-02 4.16946691e-03 -1.69016626e-02
      3.33188847e-02 3.60329822e-02 4.20439504e-02 9.35761333e-02
      -2.63274666e-02 -3.54421325e-02 6.30733818e-02 2.37572249e-02
      2.12093964e-02 -3.38833570e-03 -6.47782385e-02 6.10635011e-03
      9.09424722e-02 -1.41685102e-02 -2.17802431e-02 8.79931170e-03
      7.13970978e-03 -3.35265994e-02 2.86330096e-02 -2.93385945e-02
      -1.96009148e-02 -4.65214327e-02 2.68250573e-02 -4.23677079e-03
      2.03110669e-02 1.94945291e-03 -2.45376173e-02 1.99669097e-02
      -6.10180274e-02 -1.41837634e-02 -1.86343249e-02 -6.37238554e-04
      -3.61848846e-02 8.82564858e-02 5.33637106e-02 2.85920035e-02
      2.24350896e-02 -8.07303190e-02 8.57875869e-03 1.44410640e-01
      -4.33150604e-02 1.28676770e-02 1.28928348e-01 7.75676817e-02
      1.69360563e-02 -5.73670119e-02 -1.44053102e-01 3.42204585e-03
      1.70290068e-01 1.28260748e-02 3.32191996e-02 4.52328026e-02
      2.09673941e-02 -1.00074345e-02 3.92838567e-02 -5.61870076e-02
      -1.57594420e-02 4.10899520e-02 5.82777299e-02 6.13902360e-02
      6.31109774e-02 5.61827570e-02 -4.85846214e-03 -7.93014914e-02
      -1.52890548e-01 -2.60887183e-02 5.14020510e-02 5.28555848e-02
      -6.48429245e-02 1.17082126e-01 7.96281323e-02 5.94066940e-02
      -9.47285816e-02 -1.22193947e-01 1.40062317e-01 1.84316173e-01
      -3.55040804e-02 -6.16752170e-02 8.51018801e-02 8.02471042e-02
      3.15730646e-02 -1.21594898e-01 -1.98549673e-01 2.34311998e-01
      2.23765805e-01 9.69456788e-03 6.12613857e-02 9.06933099e-02
      4.21345234e-02 2.22235378e-02 -1.16281882e-01 -1.00008756e-01
      1.19729497e-01 1.35435626e-01 9.25123692e-02 1.43831298e-02
      2.50538401e-02 5.31155691e-02 -1.74264815e-02 -9.72516686e-02
      -1.68907508e-01 1.55574158e-01 1.30192786e-01 6.61965758e-02
      -3.32453102e-02 9.59078297e-02 1.04448795e-01 -5.09598330e-02
      -2.09372103e-01 5.98121807e-02 8.94105136e-02 -8.27906188e-03
      -2.94867717e-02 -5.71095273e-02 1.06061706e-02 4.14842404e-02
      -6.10777773e-02 5.77779114e-02 2.69864989e-03 6.36424497e-02
      4.08092700e-02 -3.37293632e-02 -2.53001582e-02 4.66800258e-02
      9.35390517e-02 -9.73168015e-02 -2.32935548e-01 4.00205627e-02
      7.78500661e-02 4.92221303e-03 -6.35604188e-03 -6.05495758e-02
      -2.65940726e-02 5.26948236e-02 -4.32392247e-02 1.12725705e-01
      5.97280101e-04 4.48487587e-02 1.16379363e-02 -8.90719891e-03
      -4.16240580e-02 -1.59394499e-02 4.28837501e-02 -5.25378399e-02
      1.02189342e-02 -2.01050043e-02 8.97114277e-02 2.91652028e-02
      1.45363191e-03 -4.16162387e-02 -1.22915553e-02 6.80102408e-02
      -5.15219718e-02 6.96321875e-02 1.06081981e-02 7.68154711e-02
      1.60495099e-02 -6.39254507e-03 -5.82469814e-02 -3.11450865e-02
      4.14995775e-02 -9.27952379e-02 6.20977627e-03 -3.74942049e-02
      3.00426558e-02 1.18438061e-02 6.02755090e-03 -1.41750565e-02
      -1.56244461e-03 3.58737819e-02 -9.32128578e-02 8.31462536e-03
      1.39383655e-02 5.71677983e-02 3.39931995e-02 6.05466031e-03
      1.11673139e-02 1.32239563e-02 6.90316409e-02 -4.22873907e-02
      1.43587207e-02 1.08683342e-02 5.20316996e-02 2.00065915e-02
      4.28674854e-02 -2.20924802e-02 3.50600411e-03 5.37558757e-02
      -6.51128665e-02 7.07816519e-03 -8.81392229e-03 2.79754624e-02
      5.26896119e-03 3.55881779e-03 4.71416977e-04 -1.16306068e-02
      3.44827399e-02 -8.27792212e-02 -2.62734834e-02 1.86966639e-02
      5.79400659e-02 4.09353785e-02 5.54078482e-02 -4.12990265e-02
      -3.14830802e-02 -1.44334882e-02 -1.09794483e-01 -2.04933155e-02
      -3.20736729e-02 4.37430553e-02 -2.35707313e-02 -1.22281443e-03
      1.66633949e-02 2.23147161e-02 4.33032438e-02 -3.34000438e-02
      4.31008078e-02 2.02571247e-02 8.73191208e-02 1.07984804e-02
      2.73671076e-02 -2.26958399e-03 1.16072288e-02 3.67909819e-02
      -3.28362696e-02 7.63576925e-02 1.90752912e-02 8.58425424e-02
      -6.15143729e-03 4.12743203e-02 -4.40856703e-02 -3.41340303e-02
      1.76278669e-02 -6.31381795e-02 5.96526964e-03 -3.94853614e-02
      2.26342231e-02 -1.18014617e-02 -1.58491880e-02 -5.08988015e-02
      -4.32780348e-02 -1.54327983e-02 -5.73745742e-02 2.42747646e-03
      -4.91224602e-02 2.73784660e-02 -3.04402113e-02 -4.88698147e-02
      1.67404804e-02 2.48827320e-02 2.40516327e-02 -1.46849239e-02
      1.59482509e-02 -3.17538083e-02 6.34339750e-02 -1.08924564e-02
      4.81375828e-02 -7.79889012e-03 4.06328496e-03 2.30335910e-02
      -1.36672170e-03 4.85345088e-02 -1.92058515e-02 6.00702055e-02
      2.77394019e-02 6.71125203e-02 -4.84506674e-02 -5.02851978e-02
      1.01496736e-02 -4.11360338e-02 -1.56173371e-02 -6.94861934e-02
      3.52740590e-03 -3.50164324e-02 -2.00384073e-02 -5.63174747e-02
      -1.71997882e-02 -7.40491552e-03 -4.98733744e-02 -1.59560088e-02
      -3.57027985e-02 3.48895118e-02 -4.47310619e-02 -3.42245251e-02
      5.50631173e-02 -8.69411696e-03 2.43562143e-02 -1.49688800e-03
      6.32418394e-02 2.92157638e-03 4.84322682e-02 -1.29894838e-02
      4.46902700e-02 3.40383276e-02 1.68733497e-03 3.56195979e-02
      -6.28552819e-03 6.01122268e-02 1.25163398e-03 6.45059049e-02
      6.53568131e-05 3.28218006e-02 -3.66706215e-02 -5.44782951e-02
      5.35659259e-03 -3.84098925e-02 1.34731911e-03 -3.72636132e-02
      -5.56759909e-03 -8.61948356e-02 -1.74246747e-02 -2.44691670e-02
      -2.18758360e-02 -3.12862284e-02 -8.66140127e-02 -7.02370238e-03
      -4.98751141e-02 -4.28393390e-03 -9.36542973e-02 -2.15041786e-02
      6.74372092e-02 3.53773758e-02 4.05235179e-02 -3.36408848e-03
      7.61947557e-02 -6.01177569e-03 8.55491236e-02 7.30848778e-03
      3.00059374e-02 2.67589875e-02 3.46691236e-02 2.99324989e-02
      -1.33781834e-02 6.25054538e-02 3.08029931e-02 7.77836964e-02
      1.43544702e-02 5.83406677e-03 -2.31828280e-02 -1.63764618e-02
      -1.23436861e-02 -7.41822198e-02 1.93314869e-02 -7.03770295e-02
      -1.80898886e-02 -7.90846050e-02 5.94788371e-03 -4.64002118e-02
      8.29604163e-04 -2.80864239e-02 -4.75704074e-02 3.81588601e-02
      -4.45022248e-02 -1.78899411e-02 -8.32393393e-02 -3.36266793e-02
      7.05146557e-03 2.08001565e-02 -4.25401982e-03 -1.65905487e-02
      4.74084578e-02 6.53990963e-03 5.98946586e-02 3.88226621e-02
      1.43718189e-02 1.27435457e-02 3.49126719e-02 4.03275453e-02
      7.00655393e-03 9.51508358e-02 1.89323013e-03 7.40346611e-02
      5.42639606e-02 4.06574979e-02 -5.81220053e-02 6.56752521e-03
      -1.02045787e-02 -5.33960797e-02 8.11931305e-03 -6.42845035e-02
      -1.09789586e-02 -5.47193103e-02 -4.35594693e-02 -2.38100421e-02
      2.01384202e-02 8.31716415e-03 -2.91412752e-02 5.63297682e-02
      -3.48583460e-02 2.91976072e-02 -4.60357741e-02 -4.65388969e-02
      8.77910852e-03 3.06308083e-02 1.42612113e-02 -7.49712158e-03
      8.18472728e-02 1.44153228e-02 5.80466501e-02 1.31305959e-02
      -4.26758081e-04 -8.08595587e-03 4.71483916e-02 1.82009153e-02
      -1.40517931e-02 7.95514956e-02 5.98610975e-02 9.81898531e-02
      5.29117174e-02 -9.75738000e-03 -8.22931603e-02 -3.01218741e-02
      1.09641831e-02 -3.10809594e-02 4.97128554e-02 -3.16022672e-02
      5.55568375e-03 -5.65537773e-02 -7.39518330e-02 -3.52167189e-02
      2.34125112e-03 2.56688837e-02 -2.75834780e-02 5.63744977e-02
      1.27754491e-02 2.34962767e-03 -9.15015407e-05 -1.15990788e-02
      -2.43686009e-02 1.08490866e-02 2.97861584e-02 -3.15395296e-02
      6.05758615e-02 5.12907933e-03 3.09097152e-02 1.89887639e-02
      -2.15056743e-02 -4.66165394e-02 -5.24310814e-03 4.40876745e-02
      1.92882884e-02 7.59118199e-02 -2.93991677e-02 2.30210964e-02
      1.55506451e-02 -4.80825752e-02 -5.24712317e-02 -1.76203325e-02
      2.31853481e-02 -3.34068537e-02 3.07471678e-02 -3.36893946e-02
      -1.54392701e-02 -2.35681627e-02 -1.14532036e-03 -4.33378704e-02
      1.61165418e-03 -4.21176804e-03 -6.60928572e-03 9.36478600e-02
      3.62362829e-03 2.10700426e-02 -1.26771489e-02 -1.82495043e-02
      -4.41774465e-02 3.75665203e-02 4.45318483e-02 -2.29317155e-02
      -5.26502170e-02 -2.51162834e-02 7.25703761e-02 4.00851108e-02
      -4.65357751e-02 -7.36679733e-02 -8.14551115e-03 3.74652930e-02
      -6.95725232e-02 -8.75031203e-02 -8.14668164e-02 1.26788393e-01
      6.38285950e-02 -7.29678273e-02 -2.99150236e-02 1.68400351e-02
      4.83140536e-02 -5.03406674e-02 -6.27362654e-02 5.31922840e-03
      6.63227290e-02 1.11510186e-02 -1.62938936e-03 -6.88539520e-02
      5.12391254e-02 9.07409191e-02 -6.46071956e-02 -6.38230443e-02
      -2.83658709e-02 1.26841903e-01 4.20177728e-02 -7.45805874e-02
      1.23643614e-02 6.81620017e-02 7.75510296e-02 -1.01801857e-01
      -2.37862512e-01 8.73025283e-02 8.02403316e-02 5.85357212e-02
      2.89996248e-02 -4.11100648e-02 -1.41966492e-02 3.17767635e-02
      -5.95308691e-02 6.51634410e-02 1.54893901e-02 5.53236008e-02
      1.88870430e-02 2.30059307e-02 -5.16594611e-02 2.56900322e-02
      7.32453018e-02 -9.29680839e-02 -2.43994594e-01 6.55477345e-02
      4.61148098e-02 2.03468055e-02 -2.59292275e-02 -3.76840942e-02
      -6.29611826e-03 1.40731493e-02 -6.68948367e-02 4.81882356e-02
      -2.59053558e-02 4.94104018e-03 -1.15498295e-02 -1.11174621e-02
      4.97723930e-02 2.68533491e-02 7.04782382e-02 -5.25116213e-02
      3.96001078e-02 7.99554633e-04 7.64722899e-02 7.93800782e-03
      7.16614127e-02 2.45690290e-02 4.35749255e-03 7.28115514e-02
      -9.48497579e-02 2.69536686e-04 1.04565369e-02 7.69954473e-02
      2.25274879e-02 3.56264375e-02 2.48875166e-03 -5.46379620e-03
      4.91749048e-02 -7.88954869e-02 2.17857938e-02 -4.56115976e-02
      -3.24387886e-02 -3.22267674e-02 5.15585430e-02 -1.38520850e-02
      -3.56371887e-02 5.41888596e-03 -1.25177592e-01 -6.99420506e-03
      -7.00105056e-02 1.49616431e-02 -3.00272126e-02 1.56349428e-02
      3.37842740e-02 5.04810624e-02 8.47042575e-02 -6.46468624e-02
      4.20906991e-02 1.17503973e-02 8.18784907e-02 5.00433668e-02
      4.23778929e-02 8.62714089e-03 1.34138158e-02 6.70079440e-02
      -8.69956017e-02 6.07318897e-03 -1.39486063e-02 7.08843544e-02
      2.82339007e-02 9.38395411e-03 -3.40304896e-02 1.42524056e-02
      4.95268255e-02 -8.96783844e-02 2.94910558e-02 -5.69964536e-02
      9.61712282e-03 -4.96833995e-02 -4.65575140e-03 -4.39733937e-02
      1.16138486e-02 2.46174708e-02 -1.23106427e-01 3.06729693e-02
      -4.73986641e-02 -7.89082889e-03 -6.20046854e-02 -2.95990873e-02
      4.17035259e-02 3.30629610e-02 6.24459870e-02 -4.89953831e-02
      -6.04213821e-03 -1.23719778e-02 6.84755668e-02 1.32918172e-02
      4.19322588e-02 -4.19608168e-02 -5.07516041e-03 2.16842256e-02
      -6.56170622e-02 2.23132595e-02 -3.20218317e-02 4.36460413e-02
      3.81216705e-02 1.08420057e-02 -2.09274236e-02 -2.65006354e-04
      3.45920436e-02 -1.02706119e-01 2.00668834e-02 -4.10253294e-02
      -1.15683756e-03 -2.99581513e-02 2.97024883e-02 -3.79900448e-02
      -3.84732485e-02 7.00571202e-03 -7.49056116e-02 2.86165010e-02
      -3.46359946e-02 2.07194928e-02 -2.75229421e-02 1.32395485e-02
      -1.03399213e-02 1.55868102e-02 1.39666107e-02 -2.49155108e-02
      3.36906686e-02 5.98665094e-04 7.28852674e-02 7.68307131e-03
      1.34887705e-02 -3.54061276e-02 1.09925931e-02 2.85700969e-02
      -1.20522073e-02 3.22572999e-02 2.33274419e-02 9.86920744e-02
      2.09356379e-02 1.42934592e-02 -1.76840313e-02 -1.55633250e-02
      1.44740492e-02 -7.74455518e-02 5.26867248e-03 -5.85717708e-02
      7.22334208e-03 -5.25212698e-02 2.27936800e-03 -4.20141444e-02
      -1.91295575e-02 -1.91394296e-02 -7.45554194e-02 1.57020893e-02
      -3.82464901e-02 3.31681333e-02 -5.13509847e-02 -4.39266376e-02
      1.53338611e-02 1.81364603e-02 4.44737487e-02 -1.09171839e-02
      4.19602990e-02 1.16176773e-02 7.29735568e-02 -2.04962064e-02
      3.10269836e-02 -1.32953674e-02 -4.05408535e-03 3.82103771e-02
      -3.09935641e-02 3.64920087e-02 1.30996099e-02 8.17023665e-02
      -6.76827447e-04 3.36067304e-02 -2.52057631e-02 -4.41731960e-02
      -1.87813118e-02 -8.48291442e-02 2.57951394e-02 -4.41918597e-02
      2.23900955e-02 -6.93936124e-02 -1.10251810e-02 -4.94870283e-02
      -5.08275516e-02 -4.79605012e-02 -1.22132137e-01 3.79208429e-03
      -5.27439266e-02 3.35328579e-02 -7.15770423e-02 -1.05817337e-02
      2.67415848e-02 -1.74793433e-02 1.62831042e-02 -2.99475547e-02
      5.50698042e-02 3.17055397e-02 9.06360298e-02 1.20311538e-02
      3.52959707e-02 1.21288635e-02 3.42603773e-02 2.07214784e-02
      -9.67036840e-03 8.22429582e-02 2.58657075e-02 9.09222588e-02
      -9.42200702e-03 1.70689523e-02 -5.08981757e-02 -4.08582389e-02
      -1.96071137e-02 -8.47790241e-02 4.49752584e-02 -3.00585870e-02
      5.82578517e-02 -5.68651408e-02 5.64347580e-03 -6.74603581e-02
      -2.19570659e-02 -2.90291402e-02 -6.79855570e-02 4.49109375e-02
      -2.03511696e-02 5.78832589e-02 -6.00168370e-02 -1.33417938e-02
      2.65133306e-02 6.49018437e-02 1.33321136e-02 -2.63336282e-02
      4.18183766e-02 9.87123325e-03 7.36738369e-02 -2.20820662e-02
      -7.20317475e-03 2.30466239e-02 2.96652410e-02 1.59017984e-02
      -4.20010388e-02 5.53780720e-02 1.90955214e-02 8.66458267e-02
      1.84151474e-02 3.15465666e-02 -6.79057911e-02 -1.31483190e-02
      -3.86200892e-03 -6.69218525e-02 5.59400581e-02 -5.00930361e-02
      1.31852757e-02 -7.82257095e-02 -4.03312668e-02 -3.40897031e-02
      5.28985111e-04 2.98493076e-02 -4.78544086e-02 5.18277586e-02
      -3.62242758e-02 2.30058022e-02 -3.30184475e-02 -1.50680887e-02
      -2.51768390e-03 -2.92828325e-02 1.07653150e-02 -6.56041801e-02
      1.79928057e-02 3.12983687e-03 4.38184999e-02 7.52258860e-03
      2.08120374e-03 3.51968184e-02 -9.05269105e-03 4.42237183e-02
      -3.05690691e-02 8.87147710e-02 5.22408336e-02 6.03736863e-02
      3.91238630e-02 7.58324042e-02 -6.70986176e-02 -5.07945158e-02
      8.46483104e-04 -8.85638669e-02 1.79291964e-02 -6.33672476e-02
      -1.33878039e-02 -5.18120863e-02 -1.88070666e-02 1.68609666e-03
      -2.54525915e-02 2.29132548e-02 -4.51139472e-02 5.29484637e-02
      1.41057977e-02 5.49451225e-02 -9.55628790e-03 2.63111796e-02
      -1.43590774e-02 -1.04019642e-02 -1.39362076e-02 -5.10896631e-02
      2.04189159e-02 -7.79615133e-04 -2.07489706e-03 2.69277883e-03
      4.77304682e-02 -1.72196832e-02 1.11119961e-02 2.81011965e-02
      5.26747247e-03 7.33955577e-02 3.22727710e-02 3.27913873e-02
      2.61479989e-02 3.58215980e-02 -5.00204116e-02 -2.97445189e-02
      -2.20343994e-04 -9.56699625e-02 -2.41749808e-02 -5.32179959e-02
      -1.28684612e-02 -5.50186485e-02 4.04859148e-03 -2.77976356e-02
      -3.52070667e-02 7.09925662e-04 -1.13372030e-02 7.54313096e-02
      -2.22140993e-03 2.15915926e-02 -1.73819140e-02 1.63318519e-03
      -1.74722001e-02 -2.08299700e-02 2.70089936e-02 -2.08759829e-02
      -8.97220001e-02 -9.51512903e-03 5.12134843e-02 8.85191467e-03
      -1.39917871e-02 -7.99492151e-02 1.56927574e-02 8.02016258e-02
      -2.22781897e-02 -8.29007328e-02 -1.91153958e-02 1.22633554e-01
      3.48522663e-02 -5.72143868e-02 -4.93391193e-02 -2.23872475e-02
      1.33199710e-02 -9.40570887e-03 -5.57569452e-02 -1.83221586e-02
      1.89230070e-02 -3.60710057e-03 3.45566496e-03 -6.21002614e-02
      -4.55557927e-03 3.64746787e-02 1.17450217e-02 -3.15637141e-02
      3.02644679e-03 1.00973733e-01 2.04330031e-02 -9.18108039e-03
      3.47822122e-02 6.52009845e-02 9.56471190e-02 -7.73080438e-02
      -2.08129853e-01 3.85002792e-02 3.95373181e-02 3.81780267e-02
      2.65830234e-02 -7.06519466e-04 1.25733875e-02 4.56209816e-02
      -6.46632984e-02 5.34153134e-02 -4.83611152e-02 4.67592757e-03
      2.03147344e-02 -9.38664004e-03 1.84607413e-03 6.42775372e-02
      7.59554580e-02 -1.53349668e-01 -2.81312644e-01 2.66441591e-02
      3.20478417e-02 2.93019600e-02 5.26948906e-02 -4.86857146e-02
      4.84735891e-03 3.89570184e-02 -1.00174181e-01 3.15885879e-02
      -4.05547321e-02 -1.13010751e-02 -4.77913953e-02 -2.36866772e-02
      7.13411197e-02 2.08879765e-02 6.23277910e-02 -4.48861793e-02
      5.73857017e-02 -2.29380354e-02 2.57402938e-03 2.38826983e-02
      8.11534673e-02 1.21369315e-02 2.74174716e-02 3.80892418e-02
      -9.18878391e-02 2.64000297e-02 -9.02712531e-03 1.20111359e-02
      -1.28087802e-02 6.00411817e-02 2.95449290e-02 3.01927719e-02
      4.25099358e-02 -9.48278606e-02 9.17803589e-03 -2.25150120e-02
      1.75713822e-02 -7.50863692e-03 5.74802458e-02 -1.48133060e-03
      -8.45666416e-03 -2.15103896e-03 -1.23021506e-01 -1.42512294e-02
      -4.20577899e-02 2.35576201e-02 -1.93684758e-03 4.09542397e-02
      4.26899455e-02 5.94101101e-02 7.21217468e-02 -4.95614968e-02
      4.64235321e-02 1.44753717e-02 5.89037053e-02 -4.33730567e-03
      3.83208171e-02 -6.18008710e-03 1.99634731e-02 2.00834963e-02
      -9.23485979e-02 2.49330215e-02 3.44512495e-03 4.65082638e-02
      -1.61920115e-02 1.40471216e-02 -5.53100836e-03 7.48342881e-03
      2.78953575e-02 -9.52486470e-02 1.94552150e-02 -1.26161138e-02
      4.21816893e-02 -1.15636550e-02 9.92573146e-03 -1.86502002e-02
      9.34847724e-03 4.49850177e-03 -9.87387970e-02 1.54809551e-02
      -2.92706136e-02 5.66701964e-02 -1.25900470e-02 3.05566192e-03
      4.10372950e-02 1.89109221e-02 4.04700935e-02 -6.36387244e-02
      2.56668851e-02 -2.85205208e-02 3.44748460e-02 -1.03375372e-02
      6.56379089e-02 1.99635290e-02 1.59801706e-03 3.08466926e-02
      -5.19358627e-02 7.25340843e-02 -2.08102856e-02 4.70429175e-02
      -9.85987857e-03 4.25661542e-02 -8.42838548e-03 2.12762109e-03
      -7.38369650e-04 -6.76387697e-02 1.59716476e-02 -3.22344042e-02
      4.67832722e-02 -1.96147896e-02 1.69758312e-02 -2.84913443e-02
      -6.64722268e-03 9.52802692e-03 -4.68388610e-02 5.89645207e-02
      -2.79047731e-02 3.08714714e-02 -4.79234383e-02 7.65378587e-03
      5.01699001e-02 4.21077162e-02 4.15669382e-02 -5.52988313e-02
      6.62769750e-02 -6.12227013e-03 5.59536032e-02 -1.48654263e-02
      3.81920710e-02 1.77881785e-03 2.89544538e-02 3.59267481e-02
      -6.19342849e-02 7.83483535e-02 -1.18954841e-03 5.19406870e-02
      -1.32919680e-02 6.10753801e-03 -1.45170474e-02 7.76357064e-03
      1.81126241e-02 -4.32081185e-02 7.12861717e-02 -2.45266538e-02
      1.57528128e-02 -2.80697085e-02 4.05224215e-04 -1.52995856e-02
      2.87803244e-02 3.30630466e-02 -4.73048538e-02 5.98222539e-02
      -2.57814322e-02 1.65721588e-02 -6.09161481e-02 -1.08652178e-03
      1.24700479e-02 -5.73117053e-04 -2.35620867e-02 -8.31178129e-02
      9.17741358e-02 6.98413467e-03 7.56027848e-02 -8.15541134e-04
      2.36691572e-02 -3.80746555e-03 1.87580045e-02 2.22621020e-02
      -6.43017516e-02 7.57623389e-02 -5.39415423e-03 4.49618995e-02
      1.39583414e-02 2.71797087e-02 -9.17540106e-04 6.95421267e-03
      1.99972596e-02 -8.79378840e-02 7.37002194e-02 -2.09491476e-02
      2.79778857e-02 -6.29312396e-02 9.43514612e-03 1.25045860e-02
      7.80475512e-03 1.83540862e-02 -1.66689586e-02 6.52733743e-02
      -1.88246518e-02 5.30902892e-02 -4.88196984e-02 1.21045457e-02
      1.99032202e-02 3.42500210e-02 1.81907956e-02 -5.18755987e-02
      3.71652581e-02 -6.15143729e-03 7.76806027e-02 1.91894118e-02
      6.40572608e-02 1.35485614e-02 3.04886699e-02 2.81247171e-03
      -6.97836131e-02 6.65627792e-02 -2.23355647e-03 6.84242100e-02
      4.83375676e-02 7.22050294e-02 5.79387648e-03 -6.28986210e-03
      1.63839795e-02 -3.46693881e-02 3.21459100e-02 -1.96209177e-02
      3.98680493e-02 -3.93658541e-02 8.28425109e-04 2.17333324e-02
      1.10208457e-02 -1.02360426e-02 -8.61393437e-02 4.15225476e-02
      -8.00240319e-03 2.67884843e-02 -7.01592714e-02 -1.02337589e-02
      1.15801096e-02 1.64042357e-02 3.54510499e-03 -7.86002427e-02
      3.13101821e-02 -1.44955777e-02 3.75016183e-02 -1.84892230e-02
      5.87488525e-02 8.73283483e-03 4.88134548e-02 4.44422290e-02
      -3.60313058e-02 7.26620331e-02 6.86815893e-03 8.80069584e-02
      3.00734732e-02 4.52714339e-02 -4.50521475e-04 1.42346639e-02
      -2.49295384e-02 -1.11822680e-01 -3.78019735e-03 -5.64603433e-02
      -2.62898561e-02 -1.08550645e-01 -1.63842775e-02 -1.64679587e-02
      8.84106196e-03 3.40931606e-03 -7.69383907e-02 2.94896737e-02
      -1.95809379e-02 3.98490205e-02 -4.82148938e-02 -9.16492939e-03
      -2.20189076e-02 -7.67280906e-03 3.00378818e-02 -3.97234522e-02
      4.64455932e-02 -4.60868925e-02 2.31923461e-02 -1.06580611e-02
      -1.51397260e-02 3.40393782e-02 1.90115608e-02 6.05420358e-02
      -2.27269363e-02 9.65478346e-02 1.52831036e-03 6.39210045e-02
      1.59591045e-02 3.50368954e-02 -4.68202084e-02 -2.73638275e-02
      -1.10808695e-02 -9.66999456e-02 -1.02676423e-02 -1.14758380e-01
      2.77379906e-04 -7.08331689e-02 -4.66120653e-02 1.43114999e-02
      4.00780179e-02 3.80218551e-02 -4.36626859e-02 5.12578674e-02
      -3.91391441e-02 1.49085103e-02 -1.82030462e-02 -5.74373035e-03
      -2.09040511e-02 -5.01660705e-02 -6.92262640e-03 -7.28439316e-02
      -2.03530630e-03 -6.39325231e-02 -1.12864031e-02 -4.76890877e-02
      -2.18680967e-02 2.24988703e-02 -2.30491944e-02 1.77149903e-02
      -2.53310855e-02 7.62614459e-02 3.31543274e-02 3.91569845e-02
      -7.46465428e-03 3.96202914e-02 -7.24819899e-02 -6.11344315e-02
      -4.92833517e-02 -1.15162052e-01 -3.91783230e-02 -9.85249504e-02
      -6.44960403e-02 -6.43939376e-02 -6.18190244e-02 3.13199013e-02
      -2.96325944e-02 3.27630551e-03 -6.57130331e-02 3.70546915e-02
      1.63830314e-02 2.08303872e-02 -6.68055471e-03 2.69653443e-02
      -3.39529179e-02 -3.80092524e-02 3.40166618e-03 -3.14702131e-02
      -3.09409965e-02 7.61745963e-04 -3.95540893e-02 -4.78500463e-02
      -2.43134089e-02 -5.96090630e-02 4.75565717e-03 4.05937433e-02
      1.57168843e-02 -1.40063800e-02 1.05635608e-02 8.26700628e-02
      1.06392114e-03 -3.55168879e-02 -5.47830621e-03 -1.77603196e-02
      -2.96791159e-02 -8.26139823e-02 -6.71849623e-02 6.54925872e-03
      2.27868613e-02 -1.21751232e-02 -7.53501803e-03 -1.50535405e-02
      9.01802722e-03 2.59009320e-02 -1.99169815e-02 -3.94179532e-03
      4.05220911e-02 8.06475133e-02 3.66047658e-02 3.69965122e-03
      5.32162637e-02 8.04896951e-02 8.39218870e-02 -1.16736449e-01
      -2.20897704e-01 4.28475672e-03 2.68277545e-02 3.14115621e-02
      2.53582466e-02 -1.70445032e-02 2.24467553e-02 4.39296998e-02
      -1.04251787e-01 5.76065145e-02 -2.86195669e-02 -3.59052583e-03
      -7.68156573e-02 -5.33741973e-02 4.65249196e-02 9.17919800e-02
      8.60257298e-02 -1.46532312e-01 -2.28851542e-01 -1.58007145e-02
      5.72475120e-02 1.30529152e-02 1.62815489e-03 -2.03172658e-02
      1.59484555e-03 1.97198801e-02 -1.36939630e-01 2.26681288e-02
      -7.57212192e-02 -2.68197549e-03 -4.75720987e-02 -1.19157219e-02
      4.83999923e-02 5.63377440e-02 5.36670387e-02 -5.86450696e-02
      8.48499760e-02 2.25144904e-03 4.01520021e-02 -1.62365325e-02
      3.46773416e-02 -1.14824465e-02 1.38586597e-03 -2.58052535e-03
      -1.09763600e-01 5.28908521e-02 -3.51632051e-02 4.32399660e-02
      8.08736496e-03 2.58975197e-02 3.37250084e-02 -6.15895307e-03
      4.32533138e-02 -6.93711936e-02 7.65227452e-02 -6.23878390e-02
      9.40123200e-03 -4.09497060e-02 3.70868184e-02 -1.65797900e-02
      -2.21559778e-02 -2.49384753e-02 -1.01633899e-01 2.09879000e-02
      -1.26411155e-01 -3.36958207e-02 -6.20356724e-02 -1.50570907e-02
      1.55087058e-02 2.86493134e-02 5.79594187e-02 -5.73212132e-02
      7.20240846e-02 -8.31542723e-03 5.61447069e-02 1.88955646e-02
      2.83058975e-02 -1.72274504e-02 2.64199860e-02 5.77038527e-02
      -5.91315180e-02 6.54578432e-02 -5.38396612e-02 4.88903597e-02
      -1.45744032e-03 9.98151861e-03 -3.64059284e-02 -3.31001473e-03
      4.02986743e-02 -7.01978803e-02 6.16416670e-02 -7.98098817e-02
      4.31791553e-03 -1.52394390e-02 7.46582309e-03 -2.44355388e-02
      1.23705976e-02 3.70850563e-02 -7.60127604e-02 4.24970686e-02
      -1.11987136e-01 2.03477824e-03 -3.05976123e-02 -2.41063256e-02
      5.17990403e-02 4.01227139e-02 3.11350487e-02 -7.16465488e-02
      4.13594060e-02 -2.56049447e-02 4.47706357e-02 -2.96499059e-02
      1.97043065e-02 2.89032813e-02 1.94342155e-02 4.42777202e-02
      -4.57405746e-02 8.47555473e-02 -9.35672969e-03 3.25845107e-02
      -2.18449999e-02 2.54919603e-02 -2.14674021e-03 2.32844409e-02
      3.91057655e-02 -9.78036150e-02 3.83051708e-02 -3.68964821e-02
      1.41344713e-02 -1.63327046e-02 1.62788015e-02 -1.60746947e-02
      -4.06860337e-02 -1.91962235e-02 -1.14435829e-01 1.82164218e-02
      -4.72748354e-02 -1.73869468e-02 -3.51392590e-02 -2.27469974e-03
      3.42270955e-02 4.30028839e-03 8.59492924e-03 -2.90338714e-02
      1.06281832e-01 -7.21812109e-03 5.19766696e-02 1.94008891e-02
      1.66697707e-02 -7.03680748e-03 1.41760167e-02 1.00309150e-02
      -6.16320074e-02 7.08969980e-02 -3.38593088e-02 5.17145842e-02
      2.31653210e-02 3.51930186e-02 -1.22803533e-02 -3.27910297e-02
      -1.39021063e-02 -5.92235476e-02 4.58462462e-02 -3.76872011e-02
      1.40730813e-02 4.22159489e-03 1.00471461e-02 -2.72970051e-02
      -2.89175962e-03 7.72772031e-03 -8.89264718e-02 3.14201266e-02
      -6.42550066e-02 1.32444268e-02 -3.51106003e-02 5.72290551e-03
      6.01725802e-02 4.56685089e-02 3.63231227e-02 -7.06804320e-02
      5.24781868e-02 -3.91481668e-02 3.09334509e-02 9.33110993e-03
      4.49182838e-02 5.95230758e-02 4.83371653e-02 6.22721128e-02
      -3.50690335e-02 3.68230976e-02 -4.81933877e-02 2.66249217e-02
      -2.91403309e-02 2.55484376e-02 1.15646273e-02 1.24823609e-02
      3.02292276e-02 -7.72057623e-02 3.83482575e-02 -9.94064659e-02
      3.14517203e-03 -3.44645269e-02 1.47365741e-02 -1.51003022e-02
      7.40268780e-03 2.28289608e-02 -8.38297233e-02 4.82462496e-02
      -8.72339532e-02 -1.95142478e-02 -8.03157240e-02 -2.27150228e-02
      4.75801192e-02 -2.76567676e-04 -6.44116008e-05 -4.82144766e-02
      3.58444937e-02 2.13396661e-02 3.80216502e-02 -2.52409782e-02
      9.29314265e-05 3.25376280e-02 2.14242823e-02 -2.22153384e-02
      -6.67926520e-02 5.94706275e-02 6.12487923e-03 2.82669328e-02
      -3.62129174e-02 -2.36739591e-03 1.98595040e-02 -8.48677754e-03
      -7.74636137e-05 -8.50299299e-02 1.92080680e-02 -2.55481899e-02
      6.37486437e-03 -7.00936839e-02 -1.04058627e-02 -8.07605125e-03
      1.10527724e-02 -2.93292534e-02 -8.86983052e-02 3.92229855e-02
      -3.86634208e-02 -5.93458826e-04 -6.81409836e-02 -1.13200257e-02
      1.61165744e-02 1.39933014e-02 -3.07545196e-02 -9.11589935e-02
      3.00102029e-02 -3.95121053e-02 1.32780047e-02 -6.35252893e-02
      1.50574709e-03 6.71659596e-03 1.14195775e-02 1.17922369e-02
      -6.91989809e-02 5.44707365e-02 -3.09697427e-02 6.03831932e-02
      4.54916293e-03 4.85782772e-02 -7.64502492e-03 -8.35631043e-03
      -2.02695038e-02 -1.11795522e-01 1.64362006e-02 -7.11734295e-02
      -1.78544782e-02 -5.16008362e-02 1.53838275e-02 2.96148490e-02
      1.13259396e-02 2.17191316e-02 -6.98725581e-02 1.43429628e-02
      -4.74596955e-02 2.32534688e-02 -3.86329629e-02 3.62987369e-02
      -3.94253284e-02 -5.32940626e-02 -2.84682140e-02 -1.04373932e-01
      2.05362551e-02 -7.55418092e-02 3.83559465e-02 -2.80914530e-02
      -1.13106826e-02 3.45491953e-02 2.99966224e-02 2.69649588e-02
      -4.89329249e-02 3.05567347e-02 -5.08504920e-02 1.78671964e-02
      1.64633468e-02 4.45731692e-02 -3.93310897e-02 -4.41125669e-02
      -4.84127626e-02 -1.49150327e-01 -1.80630703e-02 -8.30715969e-02
      -2.55505815e-02 -5.14726415e-02 1.70021236e-03 9.53691080e-03
      3.22125927e-02 1.49889169e-02 -6.21070117e-02 4.67975177e-02
      -8.44849795e-02 2.24708579e-02 1.80901669e-03 3.80294882e-02
      -4.33224030e-02 -5.34005500e-02 -5.22535853e-02 -9.01760086e-02
      -4.92619872e-02 -1.09569803e-01 -5.79954609e-02 -3.21057923e-02
      -3.20816264e-02 3.58925685e-02 -3.58451204e-03 2.67887898e-02
      -4.35441453e-03 6.57524094e-02 5.97993936e-03 5.08879963e-03
      1.72196850e-02 4.04712372e-02 -5.52949607e-02 -3.02124750e-02
      2.78107845e-03 -9.49043259e-02 -4.07217965e-02 -1.34304330e-01
      -5.65360785e-02 -5.36417738e-02 -4.53995913e-02 1.94349755e-02
      9.72740259e-03 6.42379075e-02 4.79819579e-03 5.24982028e-02
      -1.97201259e-02 2.05606762e-02 1.44591695e-02 1.90094914e-02
      -4.14993018e-02 -4.65673395e-02 -2.49741971e-02 -6.56183437e-02
      -1.85879208e-02 -6.92222780e-03 1.16067322e-03 -2.39884052e-02
      -3.56749035e-02 -1.63119603e-02 -6.67630346e-04 3.61400582e-02
      1.79031342e-02 -9.29399859e-03 -1.13140773e-02 5.61593026e-02
      1.97588447e-02 -2.47124070e-03 -3.38666849e-02 -2.36471612e-02
      -1.19595798e-02 -4.93973531e-02 -3.69481482e-02 -2.68831365e-02
      -4.60903673e-03 -1.32909045e-02 -8.46273545e-03 -2.41110623e-02
      -2.84391120e-02 2.35834718e-02 1.24025457e-02 -2.99634747e-02
      -6.09137341e-02 2.22660229e-02 6.28754590e-03 8.89275502e-03
      2.81533748e-02 6.59921765e-02 8.13464522e-02 -8.26518834e-02
      -2.30647057e-01 -1.85629521e-02 4.19686064e-02 3.79705876e-02
      2.59165689e-02 -6.24784119e-02 6.75977347e-03 2.00619046e-02
      -1.07488029e-01 2.49380916e-02 -5.87699898e-02 9.63485520e-03
      6.70830952e-03 -3.82665321e-02 1.41664930e-02 6.75195679e-02
      7.53583536e-02 -7.95169994e-02 -2.29335517e-01 -2.98255365e-02
      3.32957208e-02 9.19822790e-03 4.10130508e-02 -5.16264588e-02
      -2.56053414e-02 -1.22535815e-02 -7.80468807e-02 4.71025072e-02
      -6.02542721e-02 1.50027117e-02 3.84046650e-03 -3.47243100e-02
      3.43698002e-02 1.41682792e-02 3.57051156e-02 -8.58544037e-02
      6.66817352e-02 -6.07079118e-02 2.38192882e-02 7.26701180e-03
      6.52276799e-02 1.15062930e-02 -3.64631973e-02 -1.36733800e-03
      -1.23815544e-01 -3.04641970e-03 -1.11612409e-01 -8.74173827e-03
      -5.94714656e-02 2.00045444e-02 4.40500714e-02 5.01431758e-03
      2.66402252e-02 -7.77383745e-02 9.09649804e-02 -6.69488385e-02
      6.29244596e-02 3.87886167e-02 6.03102520e-02 1.57470610e-02
      -1.41695244e-02 9.71144065e-03 -1.05745152e-01 1.02509139e-02
      -1.09719634e-01 -6.08255016e-03 -6.57044277e-02 -1.48669221e-02
      4.61955070e-02 2.82066427e-02 4.82668616e-02 -9.39477161e-02
      2.85379216e-02 -7.35688508e-02 2.39199493e-02 -3.76300849e-02
      3.23287137e-02 -4.72073117e-03 3.11845075e-03 2.35031862e-02
      -1.02088556e-01 4.02529351e-02 -6.12141080e-02 1.36624426e-02
      -2.67506167e-02 1.38582168e-02 3.87158431e-02 3.90339009e-02
      6.75520524e-02 -8.84748548e-02 3.47518101e-02 -4.91594560e-02
      1.81279015e-02 -4.10280861e-02 4.22150828e-02 7.16477912e-03
      -1.06681334e-02 2.17198138e-03 -9.12504420e-02 4.30124253e-02
      -6.57082945e-02 1.25099701e-04 -4.23526913e-02 1.15518514e-02
      2.12795679e-02 2.79326905e-02 2.34258417e-02 -7.11652115e-02
      3.37874368e-02 -1.96703188e-02 4.22047675e-02 -2.75249872e-03
      3.79376896e-02 1.13081029e-02 -6.26863912e-03 8.20623594e-04
      -1.12197861e-01 -3.05008166e-03 -4.18708362e-02 2.11235210e-02
      -2.23909877e-02 6.22474356e-04 3.79566215e-02 2.67903823e-02
      2.40343139e-02 -6.45034239e-02 5.65411635e-02 -3.18183973e-02
      1.25576127e-02 -3.36405891e-03 3.42444144e-02 -5.65874204e-03
      -9.71773174e-03 -3.96175869e-03 -5.93911074e-02 1.95727386e-02
      -4.61190604e-02 -1.32838497e-02 -4.37550172e-02 -1.79305766e-02
      4.23544571e-02 -1.47043550e-02 1.82536594e-03 -6.12598918e-02
      3.78717333e-02 -1.42597891e-02 1.85389481e-02 -2.74128257e-03
      2.29913145e-02 -2.15178216e-03 -3.33927311e-02 1.36092268e-02
      -6.13730922e-02 5.08632064e-02 -3.13796215e-02 8.93670786e-03
      -2.14628894e-02 2.09444687e-02 2.98236683e-02 -2.81484574e-02
      6.23687683e-03 -6.47361651e-02 5.68009689e-02 -6.41014576e-02
      -2.80525777e-02 -3.19379605e-02 4.17401716e-02 2.04627384e-02
      -2.64329463e-02 4.88080643e-03 -7.66879395e-02 4.71893884e-02
      -4.13595736e-02 2.36613974e-02 -2.88466737e-02 3.84369381e-02
      7.71803968e-03 -1.35296844e-02 1.42371524e-02 -6.71784952e-02
      1.53206093e-02 -3.35738882e-02 3.71295884e-02 -1.97644066e-02
      3.49833705e-02 -5.51817613e-03 -1.14978151e-02 1.70521624e-02
      -9.36089829e-02 2.54147891e-02 -5.93138188e-02 -3.83126480e-03
      -2.93000545e-02 1.57020204e-02 4.08028159e-03 -3.88981476e-02
      8.02161545e-03 -7.37460852e-02 2.00879816e-02 -4.85440567e-02
      2.66084857e-02 -9.88478307e-03 2.78418269e-02 -1.20082851e-02
      5.41967899e-03 3.75608392e-02 -5.83039038e-02 4.99984697e-02
      -3.74186821e-02 -1.50144622e-02 -3.32278684e-02 2.11977419e-02
      6.46590395e-03 1.31353512e-02 6.23877766e-03 -7.98403770e-02
      2.73816139e-02 -1.52063845e-02 3.26411538e-02 -2.78978888e-02
      1.53483050e-02 1.81706075e-03 1.48528935e-02 -2.44228188e-02
      -1.04330242e-01 2.46051736e-02 -4.88166995e-02 1.96870193e-02
      -8.51302035e-03 2.56473534e-02 5.67819504e-03 -2.06053909e-02
      2.13311240e-03 -7.34485239e-02 2.40484159e-02 -3.26630026e-02
      -1.31181413e-02 -6.40918175e-03 2.70748902e-02 2.99849473e-02
      -1.81222893e-02 -1.36715006e-02 -7.96878785e-02 2.16248054e-02
      -1.50792515e-02 1.59486365e-02 1.63508318e-02 3.87554392e-02
      9.86967050e-03 -1.51895741e-02 -3.17975990e-02 -9.95649248e-02
      9.25388467e-03 -4.36450578e-02 9.43929330e-03 -2.73268558e-02
      1.36857871e-02 3.90045606e-02 -1.82756074e-02 1.36789810e-02
      -7.20308051e-02 5.81303500e-02 -3.37546249e-03 1.60540082e-02
      6.39778376e-03 3.64942588e-02 2.73498744e-02 -1.37623958e-02
      2.36205254e-02 -5.93637675e-02 4.40697782e-02 -3.88843454e-02
      -4.47204662e-03 -4.83880602e-02 1.89414676e-02 5.93505651e-02
      2.67509427e-02 3.23539972e-02 -2.89437585e-02 7.36290589e-02
      -3.34682278e-02 -1.20866522e-02 -4.47800988e-03 6.41845688e-02
      -1.26577346e-02 -4.93902601e-02 -4.87402678e-02 -1.19601168e-01
      2.21410487e-02 -5.39232492e-02 -1.78885385e-02 -4.23669554e-02
      8.19121674e-03 4.12476137e-02 1.63595378e-02 2.77222544e-02
      -6.90606609e-02 4.90686782e-02 -3.81378010e-02 2.95641646e-02
      6.77624950e-03 3.85356508e-02 -3.11679598e-02 -4.19472717e-02
      -2.21980456e-02 -8.92192274e-02 5.84938303e-02 -3.79232243e-02
      -2.63961963e-03 -2.11849734e-02 3.21368799e-02 1.11523112e-02
      4.58582444e-03 -3.23174382e-03 -6.16629273e-02 6.83222115e-02
      -1.95451360e-03 5.29722571e-02 3.47250663e-02 3.73897925e-02
      -1.85440630e-02 -3.06831393e-02 -2.75852866e-02 -1.08151644e-01
      -4.56504300e-02 -1.08621106e-01 -2.09986642e-02 -1.56660918e-02
      -4.65442613e-02 2.78609395e-02 -1.52336294e-02 3.24036852e-02
      -9.40247905e-03 4.19234000e-02 -9.51932743e-03 5.58398776e-02
      4.47764136e-02 3.74137163e-02 -4.56068143e-02 -6.31091893e-02
      -3.70665975e-02 -1.07788779e-01 -2.76977140e-02 -6.30114749e-02
      -1.68512668e-02 -5.17597124e-02 -3.21500711e-02 2.76098885e-02
      8.32595676e-03 2.96980832e-02 -3.18022743e-02 6.78653046e-02
      -2.87040044e-02 1.60737541e-02 2.41318177e-02 7.57387886e-03
      -1.21539831e-02 -5.52414432e-02 -2.69609652e-02 -2.97588147e-02
      -3.04336883e-02 -1.66433472e-02 2.64290925e-02 2.16427296e-02
      1.86380818e-02 -2.62702722e-02 -1.27667431e-02 3.51859853e-02
      3.40635069e-02 -1.25419386e-02 -7.00623766e-02 3.21009643e-02
      2.33369730e-02 2.21983157e-02 -4.77247015e-02 -4.74960022e-02
      -4.42981487e-03 -4.09382805e-02 -6.48308452e-03 -5.74420430e-02
      -9.78205632e-03 -6.24168606e-04 -4.32581529e-02 -1.07171163e-02
      3.82552133e-03 6.53594062e-02 7.81077892e-03 3.70930298e-03
      -6.25396222e-02 2.05097813e-02 9.65814944e-03 -2.96559883e-04
      3.41782421e-02 7.28508011e-02 9.82655436e-02 -8.20663869e-02
      -2.32514873e-01 -2.11462807e-02 4.21474576e-02 5.47100455e-02
      4.72279377e-02 -4.43805046e-02 6.69824833e-04 4.50629421e-04
      -8.78415108e-02 3.58323231e-02 -7.37338439e-02 -1.09096861e-03
      -4.29423479e-03 -2.26458744e-03 3.44024412e-02 5.24328537e-02
      7.96436071e-02 -8.28126967e-02 -2.34821007e-01 3.29402015e-02
      3.12814824e-02 3.11132353e-02 6.20572781e-03 -2.52367035e-02
      -2.57026087e-02 1.28205605e-02 -7.04337955e-02 5.82928210e-02
      -8.58750716e-02 -4.18512709e-02 -3.04903351e-02 -6.10753186e-02
      3.63290384e-02 2.32021231e-02 2.10837852e-02 -4.99478392e-02
      8.17165747e-02 -5.20446859e-02 3.57942954e-02 2.26958786e-04
      5.79332635e-02 -3.15787941e-02 -9.12001077e-03 2.84340996e-02
      -1.08782269e-01 1.84504203e-02 -1.06374487e-01 -5.00478083e-03
      -4.00278457e-02 -1.70626454e-02 4.71306816e-02 2.28563789e-02
      6.62786216e-02 -5.79243340e-02 7.88009912e-02 -4.13753316e-02
      7.26513518e-03 -3.04675121e-02 2.35599354e-02 -2.84482948e-02
      -7.80956168e-03 4.90751630e-03 -8.96672383e-02 1.44617110e-02
      -1.05945140e-01 -1.90539174e-02 -4.03051116e-02 -4.57823165e-02
      1.55439647e-02 1.71440840e-02 4.65021767e-02 -5.80330491e-02
      5.75432181e-02 -6.54959083e-02 3.92990448e-02 -3.85794267e-02
      2.64596697e-02 -2.03671921e-02 -2.83970833e-02 5.51165873e-03
      -9.47761685e-02 3.75718903e-03 -7.95629025e-02 -1.02888299e-02
      -2.38080453e-02 6.61301753e-03 -5.77321043e-03 6.69526821e-03
      2.67507676e-02 -7.94034153e-02 4.54272144e-02 -7.10034594e-02
      3.17420959e-02 -8.24803673e-03 3.27246040e-02 -4.21920195e-02
      -2.25991551e-02 8.09912942e-03 -7.68249407e-02 4.38372567e-02
      -6.41817376e-02 4.74734195e-02 1.32574169e-02 7.17552891e-03
      1.81305222e-02 1.28281545e-02 2.72402186e-02 -5.73445559e-02
      2.80356612e-02 -5.53025827e-02 -6.51386054e-03 -2.85155186e-03
      4.23111282e-02 -4.00424749e-02 -2.04253173e-03 -6.74733333e-03
      -6.29257038e-02 3.36338282e-02 -5.27409799e-02 -2.18982119e-02
      -4.47126180e-02 2.24894267e-02 1.40548293e-02 1.75697673e-02
      5.22060879e-02 -4.54831012e-02 4.82423492e-02 -1.82872247e-02
      5.71809113e-02 2.59746835e-02 4.22907807e-02 -1.92834008e-02
      2.84754299e-02 7.33689079e-03 -7.49656260e-02 2.17057392e-02
      -5.06526530e-02 5.24764135e-03 -1.85951311e-02 -1.06181595e-02
      2.79647261e-02 -1.74478665e-02 -2.12982744e-02 -4.13744785e-02
      3.45413126e-02 -7.02352449e-02 3.59560270e-03 -4.58792411e-02
      2.71243770e-02 -3.16652935e-03 -3.09061613e-02 -1.74124744e-02
      -8.96333307e-02 2.04466134e-02 -3.97072732e-02 2.94234063e-02
      -2.37321444e-02 2.51952708e-02 3.32114957e-02 -2.42166920e-03
      -1.68390404e-02 -6.40771985e-02 6.11905642e-02 -4.84526828e-02
      2.59862449e-02 -1.60356553e-03 3.21509056e-02 -2.00099638e-03
      -2.09336150e-02 -6.56699715e-03 -6.59874529e-02 4.55888063e-02
      -2.39050556e-02 2.80822795e-02 -1.07398964e-02 3.40800658e-02
      -5.03908470e-03 -3.94182950e-02 -2.51081609e-03 -7.33065605e-02
      1.82271600e-02 -5.53349778e-02 2.19251812e-02 -1.67392027e-02
      -6.62500830e-03 -1.03754355e-02 -4.47446015e-03 2.41918433e-02
      -4.59362604e-02 7.12670535e-02 -4.20933180e-02 1.00911856e-02
      -1.27465231e-02 2.02374551e-02 1.20195169e-02 -4.15382162e-03
      3.36841568e-02 -7.10879490e-02 2.29624286e-02 -4.83225994e-02
      6.60094712e-03 -2.48845443e-02 4.22855206e-02 8.31367727e-03
      3.07250749e-02 4.52915728e-02 -5.61009422e-02 8.81938189e-02
      -2.29299981e-02 1.14033418e-02 4.11136728e-03 2.07472984e-02
      -9.96495038e-03 -2.85805464e-02 -3.04340944e-02 -7.59442225e-02
      4.95543443e-02 -2.93078907e-02 1.41059440e-02 -1.23874061e-02
      3.03199124e-02 -4.29952703e-03 -3.66043560e-02 -1.65310521e-02
      -6.24411590e-02 3.81519161e-02 -4.75520752e-02 2.70315143e-03
      -1.46392388e-02 4.77879345e-02 2.04492435e-02 1.54631510e-02
      -7.90406950e-03 -9.45820883e-02 9.20886695e-02 -2.24842187e-02
      7.64566753e-03 -5.79834776e-03 4.36850116e-02 3.37850861e-02
      2.55475678e-02 -2.16164882e-03 -5.54574355e-02 6.95429891e-02
      -1.27505884e-02 6.98199170e-03 -1.70083176e-02 3.85981239e-02
      -1.55838218e-03 -5.69115356e-02 1.52956722e-02 -5.07628955e-02
      3.17262337e-02 -1.99528672e-02 -4.73702699e-03 -6.03236593e-02
      -6.55612582e-03 1.93628706e-02 3.08162477e-02 4.39827070e-02
      -2.92388853e-02 8.11333209e-02 -8.45186338e-02 -1.20186917e-02
      -2.08721887e-02 3.85840498e-02 1.13728046e-02 2.08575614e-02
      3.70102702e-03 -4.69490550e-02 7.83573315e-02 -1.25402166e-02
      1.54738221e-02 -5.18438630e-02 7.20987373e-05 1.20817637e-02
      5.52143157e-02 -1.26848067e-03 -3.37884873e-02 9.46778953e-02
      -2.19338518e-02 6.04429990e-02 -6.58579078e-03 2.11790539e-02
      -1.09993350e-02 -3.76315750e-02 -7.80114532e-03 -5.41204736e-02
      4.03006263e-02 -9.49878320e-02 -3.09220664e-02 -5.57072237e-02
      -1.12814056e-02 2.14775503e-02 7.22188549e-03 3.75770479e-02
      -2.33534891e-02 7.37306252e-02 -3.59906517e-02 1.06643140e-02
      2.19370164e-02 3.34017649e-02 -3.82679105e-02 -3.32372114e-02
      -3.91192082e-03 -4.95924503e-02 5.14520742e-02 -8.61662403e-02
      -2.36811601e-02 -5.14516048e-02 -1.00018429e-02 5.03703766e-02
      1.47710806e-02 4.71815541e-02 -1.67700574e-02 8.25959593e-02
      -4.02516909e-02 8.48326366e-03 1.56474449e-02 3.16660367e-02
      -2.94948872e-02 -3.59185860e-02 -4.17574756e-02 -9.14527774e-02
      -1.03995940e-02 -5.85807562e-02 -5.21454439e-02 -7.46138543e-02
      -4.05414477e-02 3.88856940e-02 1.59537438e-02 5.59277758e-02
      -1.92532968e-02 3.53081301e-02 -2.49932278e-02 -2.36972747e-03
      -1.54040521e-03 3.64017971e-02 -4.43148650e-02 -5.63575104e-02
      -3.81376483e-02 -7.31102526e-02 4.69148383e-02 -4.35509831e-02
      -4.07853797e-02 -2.49184333e-02 -1.59106012e-02 2.41422951e-02
      3.21473964e-02 8.02079439e-02 1.15625067e-02 4.90336008e-02
      -4.38240962e-03 2.59000976e-02 2.03108741e-03 -5.58802765e-03
      2.78777396e-03 -1.40829571e-02 2.62532793e-02 -5.27797081e-02
      -4.08534966e-02 -6.30157953e-03 -1.09282620e-02 -1.45322494e-02
      -6.90172287e-03 3.84423579e-03 1.76936407e-02 5.76390736e-02
      -2.85234936e-02 -2.88772117e-02 1.40381895e-03 3.89123596e-02
      1.90016050e-02 1.28056137e-02 -3.95712890e-02 -4.91945830e-04
      5.43425344e-02 -2.71522086e-02 -3.44096422e-02 -2.35745162e-02
      2.08829325e-02 -1.63989179e-02 -3.61973420e-02 -5.29818945e-02
      5.67210652e-03 4.15934175e-02 -1.78917218e-02 -1.04163326e-02
      -4.48852824e-03 3.09301037e-02 6.38179528e-03 -1.17854308e-02
      3.56659517e-02 3.92235406e-02 7.89310262e-02 -4.01776209e-02
      -2.19661519e-01 6.06204681e-02 1.99469067e-02 3.16843949e-02
      2.37368923e-02 -4.07776833e-02 -1.12208687e-02 2.31684353e-02
      -9.56628174e-02 1.28904069e-02 -7.21703917e-02 -4.12652157e-02
      -5.13078161e-02 -4.70347367e-02 5.09845540e-02 2.10356712e-02
      7.81682879e-02 -7.03349784e-02 -2.34865680e-01 7.39814937e-02
      6.92765936e-02 5.67015335e-02 4.61736545e-02 -4.48853858e-02
      -2.64887270e-02 -3.46827926e-03 -8.08277503e-02 2.13127933e-03
      -3.43425088e-02 -1.81525145e-02 -7.68972794e-03 -1.17491744e-02
      3.61545719e-02 2.41103061e-02 3.74650732e-02 -6.43662140e-02
      5.57739846e-02 -5.48900887e-02 8.89112474e-04 -1.70695465e-02
      1.45014189e-02 -2.57550739e-02 -2.11328790e-02 9.21889395e-03
      -1.10533766e-01 -5.21003678e-02 -1.18414454e-01 -3.36301886e-02
      -3.83276641e-02 -2.78997328e-02 3.00183389e-02 3.22470479e-02
      1.58771668e-02 -7.66456723e-02 4.01107557e-02 -1.17901783e-03
      4.92508225e-02 2.45300997e-02 7.45925903e-02 1.58497058e-02
      1.32212322e-02 6.40831655e-03 -9.97708663e-02 -1.66587792e-02
      -7.87386149e-02 1.29524013e-02 1.39527377e-02 2.79258359e-02
      9.79134906e-03 5.13873238e-04 3.48052792e-02 -7.47381821e-02
      2.78622378e-02 -7.42810592e-02 -1.78358576e-03 -3.41675915e-02
      -1.12213744e-02 -5.94726875e-02 -3.34071554e-02 -1.98282185e-03
      -6.65702298e-02 1.92433931e-02 -8.59892741e-02 -1.39715094e-02
      -4.71668765e-02 -2.93770209e-02 5.72849177e-02 2.63050497e-02
      3.95764410e-02 -6.76402822e-02 3.49407718e-02 -1.73817761e-02
      5.13966717e-02 4.46960516e-02 4.93291616e-02 1.47758145e-02
      7.87759852e-03 1.52961267e-02 -4.65653576e-02 -1.78553944e-03
      -8.77024978e-02 3.42441606e-03 -3.16533670e-02 -2.02995501e-02
      -1.58127900e-02 7.42440438e-03 3.78933772e-02 -3.56372669e-02
      2.98995450e-02 -2.29187272e-02 1.86088290e-02 -1.27382856e-02
      -1.73634347e-02 -1.48319602e-02 2.34288424e-02 2.09841393e-02
      -9.54928845e-02 1.04861716e-02 -4.79840189e-02 -2.43733134e-02
      -7.94088989e-02 -3.27446386e-02 5.47903813e-02 3.30931507e-02
      5.59877418e-02 -2.78868340e-02 2.01112460e-02 -4.60441299e-02
      3.33042443e-02 5.34815108e-03 4.22029532e-02 2.08739508e-02
      4.02691178e-02 2.46320739e-02 -7.30277300e-02 2.84806676e-02
      -7.06427917e-02 2.02436037e-02 -7.04221334e-03 1.01709636e-02
      1.50766689e-02 -2.62594403e-04 2.44501084e-02 -5.67060821e-02
      3.33305933e-02 -1.89330745e-02 2.44543739e-02 -5.26269786e-02
      1.19402520e-02 -3.94507125e-02 -6.40288815e-02 2.15975679e-02
      -5.21518290e-02 2.00399291e-02 -2.62950249e-02 6.86619245e-03
      -3.28562818e-02 -9.33523173e-04 1.65479835e-02 2.64479443e-02
      4.27577794e-02 -6.11966103e-02 5.26684746e-02 -2.10724752e-02
      3.85680310e-02 -8.60527903e-03 3.21236067e-02 -1.57432500e-02
      9.68136732e-03 4.89908643e-02 -2.73370501e-02 6.37799054e-02
      -3.93234827e-02 2.37186905e-02 -1.38768358e-02 3.40050682e-02
      -1.71591938e-02 -6.42436668e-02 1.45150190e-02 -5.57528101e-02
      3.09908893e-02 -1.39272185e-02 -1.06752636e-02 -3.48205008e-02
      2.52717957e-02 -1.96088906e-02 -1.46331163e-02 4.87270989e-02
      -5.20950258e-02 9.65911895e-02 -7.89646059e-03 -5.06249676e-03
      -3.61903347e-02 -6.22946071e-03 2.10002176e-02 -7.05714803e-03
      4.99884412e-02 -4.58719246e-02 7.60281608e-02 -3.02801840e-02
      -1.60807036e-02 -2.60249469e-02 7.15131611e-02 4.15173247e-02
      1.12955943e-02 2.92083696e-02 -3.08731515e-02 8.88242275e-02
      -1.87316854e-02 2.96981856e-02 -7.08876876e-03 5.24714962e-02
      -2.99415737e-03 7.78331421e-03 -2.21030391e-03 -6.01858236e-02
      8.33615437e-02 -6.31125830e-03 -2.83377292e-03 -8.12990516e-02
      -3.00757624e-02 -8.62781983e-03 1.38116740e-02 -7.73138553e-03
      -6.99888915e-02 5.48973456e-02 -1.34252002e-02 8.69156513e-03
      -4.98248190e-02 2.05617659e-02 -4.64992132e-04 1.74650699e-02
      4.76007685e-02 -1.72698479e-02 6.90497905e-02 -3.08848675e-02
      3.17165218e-02 -4.63750400e-02 4.72966470e-02 2.98866704e-02
      3.98799554e-02 3.51333357e-02 -3.79882976e-02 9.70247611e-02
      -3.10746208e-03 9.36183855e-02 1.17684435e-02 5.02559692e-02
      -1.10927003e-03 9.30955634e-03 -3.09848506e-02 -7.33148456e-02
      4.30185050e-02 -1.33557990e-02 2.23441813e-02 -8.46900344e-02
      -3.95738967e-02 5.56552457e-03 1.88212469e-02 -2.40629166e-02
      -4.77780961e-02 3.87551561e-02 -5.42978197e-03 4.63253632e-02
      1.35561475e-03 -4.31251479e-03 4.88735884e-02 2.78022513e-02
      3.38145196e-02 -4.05031443e-02 9.85936821e-02 -2.32465137e-02
      5.65970130e-02 -5.11661405e-03 2.53690518e-02 1.02521248e-01
      6.15998805e-02 5.90033196e-02 -3.93324718e-02 1.07573785e-01
      -6.11830689e-03 1.95052363e-02 2.56800018e-02 6.25250041e-02
      -6.05143700e-03 -4.25387882e-02 -1.49617381e-02 -7.28842467e-02
      2.70852982e-03 -3.09927762e-02 -6.48850529e-03 -2.60992274e-02
      -1.50458878e-02 2.04734430e-02 -2.11563203e-02 2.22020224e-02
      -2.61415653e-02 3.38155329e-02 -4.42902232e-03 1.65038910e-02
      2.94464803e-03 4.84970659e-02 1.56187704e-02 -3.64334963e-04
      3.58932689e-02 -6.93991110e-02 7.42527843e-02 -2.90333927e-02
      -8.78246874e-03 -2.04766095e-02 1.74506269e-02 5.87522686e-02
      3.00630443e-02 6.48176968e-02 -4.13959399e-02 9.61435214e-02
      -4.13895026e-03 1.65670458e-02 4.83071245e-03 4.74335514e-02
      -1.30785163e-02 -6.21271729e-02 -6.17208555e-02 -1.22987568e-01
      -2.63351034e-02 -3.72245200e-02 -3.01180910e-02 -2.83335559e-02
      -2.97964644e-03 1.69320144e-02 -1.25840884e-02 4.21229303e-02
      -2.78603863e-02 -1.30702360e-02 -2.04830058e-02 2.34650839e-02
      2.85591488e-03 3.37646343e-02 1.33841194e-03 -3.33286636e-02
      -8.04568175e-03 -1.25257805e-01 3.77165638e-02 -1.61631815e-02
      -1.90748498e-02 -3.70620564e-02 1.52534377e-02 2.77144592e-02
      1.63628720e-02 5.49359508e-02 4.06033639e-03 4.45718169e-02
      -1.14093143e-02 3.26033565e-03 -1.78823899e-02 4.03320901e-02
      -3.18407416e-02 -2.82862280e-02 3.03357691e-02 -2.03455128e-02
      -5.77133223e-02 -5.84259257e-02 -4.07682592e-03 -1.92952231e-02
      1.34604843e-03 -4.74157371e-02 2.35650912e-02 4.90382090e-02
      1.87855121e-02 -2.71720309e-02 -2.47372687e-02 1.74210090e-02
      -2.35901922e-02 -1.71120279e-02 7.44074676e-03 -2.47245580e-02
      5.25095761e-02 -8.04190151e-03 -2.88476069e-02 -2.69337911e-02
      -1.56192007e-02 -1.57902613e-02 2.74923630e-02 -1.15644047e-03
      3.37935076e-03 4.06946018e-02 -7.66839692e-03 -2.64253896e-02
      -4.28950675e-02 -6.59858109e-03 -3.97560410e-02 1.78929954e-03
      5.81354555e-03 6.58349618e-02 8.76106992e-02 -4.46834303e-02
      -2.42147222e-01 1.75451711e-02 3.11581977e-02 4.25683632e-02
      2.61026733e-02 -1.00213408e-01 2.35366300e-02 5.97266294e-02
      -2.92327777e-02 4.62642452e-03 -5.46977296e-02 -1.53119881e-02
      -1.23490570e-02 -2.87168920e-02 7.24531338e-03 8.87297839e-02
      1.34211436e-01 -7.95217678e-02 -2.75291413e-01 1.37374073e-03
      5.70283607e-02 7.38994256e-02 -1.29051330e-02 -3.35737020e-02
      2.20766701e-02 1.01727374e-01 -4.49660867e-02 1.39291557e-02
      -2.17761602e-02 7.17652030e-03 2.97454409e-02 -2.27719452e-02
      -2.22957823e-02 -2.27895640e-02 1.52407438e-02 -6.61183000e-02
      5.21049052e-02 -3.18990760e-02 1.23678241e-02 1.78798113e-03
      2.42139176e-02 -5.15928492e-02 -3.71080339e-02 -1.22096548e-02
      -1.16783440e-01 -1.95011199e-02 -8.49726573e-02 -6.83131302e-03
      -1.43713951e-02 2.13409704e-03 2.43274365e-02 4.68532853e-02
      9.83452201e-02 -2.49240045e-02 8.62034932e-02 1.22102750e-02
      3.02763954e-02 5.05732559e-02 1.89546458e-02 -1.72723550e-02
      1.78856757e-02 7.07178265e-02 -1.35749355e-02 4.61787768e-02
      -7.56728426e-02 1.35503141e-02 3.70459110e-02 1.61801912e-02
      -1.00159999e-02 -2.17607077e-02 2.51673982e-02 -4.36596200e-02
      2.54569836e-02 -3.26700583e-02 3.73970643e-02 8.47898889e-03
      3.12457457e-02 -3.23455408e-02 -5.43510690e-02 -7.96578452e-03
      -7.36527964e-02 -1.82469208e-02 -8.76184702e-02 -4.39886862e-05
      -4.79511768e-02 -1.00854188e-02 6.44298596e-03 -1.34393759e-02
      7.56095573e-02 5.27933938e-03 6.27494082e-02 1.08770085e-02
      4.77659330e-02 2.83724107e-02 2.71432213e-02 5.24777453e-03
      -1.41516048e-02 4.56638150e-02 -1.68548841e-02 4.93968204e-02
      -1.37258100e-03 7.94029906e-02 2.14647576e-02 3.46144699e-02
      -1.08218461e-04 -1.99605757e-03 1.23771708e-02 -4.90982085e-02
      -1.71091035e-03 -5.08648343e-02 2.57861689e-02 -3.13815810e-02
      -2.18782052e-02 -4.01847586e-02 9.61338403e-04 8.81654327e-04
      -9.88060907e-02 4.81535718e-02 -8.70875046e-02 -4.07981081e-03
      -6.17501736e-02 -5.42847328e-02 1.32090002e-02 2.05910355e-02
      6.41883165e-02 2.06259196e-03 7.38505572e-02 1.67517439e-02
      9.98606384e-02 5.40949106e-02 3.98369543e-02 1.22849653e-02
      3.90333403e-03 4.75895926e-02 2.94651021e-04 7.32334703e-02
      -3.88647318e-02 5.63966632e-02 1.84276477e-02 5.27485926e-03
      1.18314913e-02 -1.76173169e-02 4.62197233e-03 -6.74176291e-02
      6.70661852e-02 -4.61508185e-02 2.07615755e-02 -5.06486371e-02
      -2.68754233e-02 -3.35568972e-02 -4.10391092e-02 -7.54847564e-03
      -6.05519265e-02 4.75143306e-02 -7.62410164e-02 6.82131713e-03
      -5.69607951e-02 -8.18777457e-03 3.87622565e-02 -1.51560036e-02
      4.20357697e-02 5.12104295e-03 1.05021119e-01 -1.37056438e-02
      8.64563808e-02 3.44658457e-02 3.72373015e-02 -9.14075039e-03
      -5.52594364e-02 5.94815845e-03 -1.55905783e-02 7.98055530e-02
      -1.33363325e-02 8.01094025e-02 3.82759273e-02 -2.58599874e-04
      -1.47394452e-03 -3.22527885e-02 -2.86242347e-02 -9.64557976e-02
      -2.18847990e-02 -7.07796067e-02 -4.46567452e-03 -5.24211600e-02
      1.18825091e-02 -1.87132284e-02 -1.76806971e-02 7.98974186e-03
      -6.04807474e-02 8.71988479e-03 -5.85281402e-02 1.23374211e-02
      -3.01065333e-02 -6.15184568e-03 8.58112145e-03 -2.30343379e-02
      2.34728251e-02 -6.78775907e-02 1.58635844e-02 -6.33965507e-02
      4.35851812e-02 1.40336165e-02 3.90605931e-03 1.67580787e-02
      1.65122282e-02 4.48046736e-02 -1.75200552e-02 6.38282374e-02
      -1.63162500e-02 7.07716197e-02 -1.20161315e-02 -6.20551035e-03
      -2.46197712e-02 -1.38683552e-02 7.48105114e-04 -3.35495099e-02
      8.05453118e-03 -5.12988232e-02 2.56583076e-02 -5.10019511e-02
      -2.69922521e-02 -1.80112962e-02 -3.51106785e-02 5.93139371e-03
      -5.84126674e-02 1.88950635e-02 -4.56301644e-02 2.11259928e-02
      -4.08268794e-02 -1.22386555e-03 3.18194670e-03 9.17668734e-03
      2.97156610e-02 -1.22885290e-03 3.25714052e-02 -6.45323098e-03
      5.12984134e-02 -1.68401785e-02 1.81961544e-02 1.00297183e-02
      2.33464446e-02 1.60969868e-02 -2.45500859e-02 6.19756728e-02
      -7.23356940e-03 5.71358837e-02 1.27385249e-02 3.01112924e-02
      1.27537735e-02 -2.93979961e-02 8.72788671e-03 -6.38829544e-02
      1.97311286e-02 -2.73771212e-02 -5.08205686e-03 -2.75731441e-02
      1.13988435e-03 3.10799554e-02 2.85101030e-03 2.24159025e-02
      -7.58369565e-02 3.96667495e-02 -1.96029898e-02 -8.22728500e-03
      -3.22536938e-02 6.46548625e-03 4.45407666e-02 1.95773114e-02
      5.89770712e-02 -1.32621387e-02 4.56705838e-02 -3.37152854e-02
      4.39596549e-03 -2.89794593e-03 3.48312333e-02 5.47963828e-02
      5.69832474e-02 6.22530691e-02 -1.64916124e-02 7.17489347e-02
      4.67481464e-03 5.68410903e-02 1.95282535e-03 5.33095859e-02
      -1.55208204e-02 -3.61348502e-02 -4.82675416e-04 -8.53575319e-02
      3.88729684e-02 -1.45303039e-02 -3.64295989e-02 -5.62182590e-02
      -3.62335183e-02 2.55015437e-02 1.61803961e-02 3.59973982e-02
      -5.97457774e-02 6.17329031e-02 -3.34948301e-02 -1.13419313e-02
      -4.05701697e-02 3.46405921e-03 3.51098776e-02 3.85299325e-02
      2.82705128e-02 -2.92223934e-02 5.82183227e-02 1.48373907e-02
      5.40105440e-02 -1.46914022e-02 2.65960488e-02 4.78668623e-02
      5.91942817e-02 9.29057077e-02 -4.61799605e-03 8.20230171e-02
      1.61630996e-02 3.81805077e-02 6.83127716e-03 4.37086970e-02
      -2.68070381e-02 -5.73421977e-02 -3.80356126e-02 -1.29315242e-01
      -1.33937830e-02 -4.18310128e-02 -2.32963320e-02 -5.91699854e-02
      -1.26185492e-02 4.41619754e-03 -1.11052748e-02 4.17120904e-02
      5.77372778e-03 1.50069846e-02 -2.16850657e-02 -1.74766197e-03
      -2.12770179e-02 2.44215243e-02 -1.23896739e-02 -3.48743945e-02
      2.77592596e-02 -4.58576940e-02 8.55819788e-03 -2.80567482e-02
      -1.65823393e-03 -4.20914739e-02 2.74897367e-02 -2.02858634e-03
      -2.39143777e-03 8.84812996e-02 5.03154956e-02 4.16495185e-03
      -2.22698059e-02 3.72346938e-02 -4.61428910e-02 5.34068905e-02
      7.11928820e-03 -9.37916804e-03 4.26878929e-02 -1.31672900e-03
      -3.68629359e-02 -5.28859757e-02 -2.00533238e-03 -1.64675582e-02
      1.70801803e-02 -3.19690332e-02 2.27025681e-04 4.13856097e-02
      -2.23737638e-02 -3.43065374e-02 -4.78720069e-02 2.56280489e-02
      -1.55349961e-02 -1.95260178e-02 -2.34315209e-02 -6.16123201e-03
      5.22041172e-02 3.33351158e-02 -3.40557471e-02 -6.38063774e-02
      8.60959105e-03 -5.09272516e-02 4.00075391e-02 -5.37422746e-02
      4.30274475e-03 2.53761690e-02 -2.12163180e-02 -4.97718491e-02
      -5.50586917e-02 1.19625432e-02 -5.48040606e-02 -2.91022612e-03
      1.51522178e-02 6.27809018e-02 1.10454641e-01 -1.19692840e-01
      -2.39277333e-01 -3.09688691e-02 1.70465745e-02 5.73612265e-02
      -2.28446350e-02 -2.01704912e-02 1.76660959e-02 6.80491105e-02
      -6.73267245e-02 3.49486507e-02 1.28283473e-02 9.66564659e-03
      1.21329781e-02 -4.48638611e-02 -2.97132228e-02 8.28844160e-02
      5.08884639e-02 -1.21915422e-01 -2.43564874e-01 -3.22468653e-02
      4.95373085e-02 5.73555492e-02 -7.11784065e-02 -5.01829311e-02
      3.47607657e-02 6.40661791e-02 -5.06872945e-02 2.99802832e-02
      -1.03917224e-02 4.17123698e-02 3.61443236e-02 -5.04031591e-02
      8.78387876e-03 -3.00736651e-02 -5.64909214e-03 -4.89922464e-02
      6.65240511e-02 -6.29220158e-03 -3.66657157e-03 -1.34658068e-02
      -1.70777291e-02 -2.65314728e-02 -6.10971302e-02 9.91228502e-03
      -4.82011959e-02 3.96647006e-02 -7.20304996e-02 -4.80919704e-02
      -4.02311906e-02 -3.85264009e-02 -6.20541116e-03 1.05993599e-02
      5.53848557e-02 -2.19166116e-03 9.93004739e-02 2.85040634e-03
      2.40849555e-02 2.56005861e-02 -2.24022176e-02 8.93775746e-03
      4.05216916e-03 3.46548781e-02 -4.44991002e-03 8.55946094e-02
      -5.47265373e-02 1.12896739e-02 4.90548881e-03 2.04297267e-02
      -1.18668294e-02 -6.92165941e-02 2.76385508e-02 -1.31635116e-02
      6.72901496e-02 -1.70371067e-02 -1.49747566e-05 -4.48354930e-02
      -5.37937507e-03 -6.34951070e-02 -5.93886487e-02 2.87790690e-03
      -5.49635962e-02 2.44338848e-02 -5.53896949e-02 -1.69610530e-02
      -7.16375113e-02 -4.70705777e-02 3.05775255e-02 4.39549461e-02
      5.96613623e-02 8.35066848e-03 1.02073796e-01 -8.53241980e-03
      5.05983941e-02 2.55606659e-02 4.50549424e-02 3.55960354e-02
      7.80031532e-02 6.31272122e-02 2.09493153e-02 1.06197953e-01
      -2.98773013e-02 1.86314266e-02 -3.21192463e-04 6.69067586e-03
      3.64413001e-02 -6.89149415e-03 2.53679641e-02 -1.83451790e-02
      4.81075458e-02 -4.48607802e-02 1.97337177e-02 -4.19751853e-02
      -2.00737473e-02 -2.80525442e-02 -5.22410758e-02 1.49769569e-03
      -2.64023487e-02 3.39861177e-02 -7.50977471e-02 -1.43445628e-02
      -9.04013589e-02 -4.36885059e-02 9.41482112e-02 8.48969892e-02
      7.17033595e-02 1.45757711e-02 8.91843736e-02 -6.27666665e-03
      4.19877917e-02 2.82373670e-02 4.26779129e-02 3.17050405e-02
      1.78462993e-02 5.41175343e-02 7.67254096e-04 9.72915590e-02
      -2.87136566e-02 6.12764899e-03 1.23542473e-02 1.16940541e-02
      1.15603097e-02 -6.73044547e-02 -1.18413744e-02 -2.48967353e-02
      3.30815986e-02 -6.34896308e-02 -2.18118839e-02 -8.20847452e-02
      -2.73110997e-02 -5.27978130e-02 -8.30249488e-02 -2.46351343e-02
      -6.98698908e-02 3.07092555e-02 -7.41532445e-02 -1.67818367e-02
      -8.64880458e-02 -4.98636961e-02 6.56580403e-02 1.18382433e-02
      5.98299988e-02 8.51199217e-03 1.14382796e-01 -6.24799926e-04
      3.89696658e-02 2.80847512e-02 3.20100076e-02 4.33442108e-02
      2.54349615e-02 6.04799502e-02 1.03380773e-02 1.03731751e-01
      -1.77733023e-02 2.48135068e-02 2.22697780e-02 5.20964935e-02
      -1.73268828e-03 -6.82508200e-02 -2.17337590e-02 -7.32481703e-02
      4.75183968e-03 -1.04316011e-01 -3.01886555e-02 -8.18468034e-02
      -4.82478552e-02 -3.24412212e-02 -7.53892586e-02 2.15386767e-02
      -3.55507247e-02 4.31607515e-02 -3.78265716e-02 1.42030306e-02
      -9.69927907e-02 -5.81050031e-02 5.91078699e-02 4.74036206e-03
      4.21214662e-02 -4.52054515e-02 5.68310879e-02 -7.76656717e-02
      -2.26949286e-02 -6.33221166e-03 3.73474583e-02 2.88678911e-02
      3.61400330e-03 6.16643801e-02 -2.76085883e-02 6.22813180e-02
      -7.37459436e-02 6.92977512e-04 -4.17598411e-02 -4.19908809e-03
      -3.98561396e-02 -5.43486401e-02 2.82547041e-03 -3.88323106e-02
      1.82907972e-02 -1.53619759e-02 1.40388049e-02 -1.06313750e-01
      -6.04250096e-02 -3.56926136e-02 -3.58697511e-02 -3.18563953e-02
      -7.42712095e-02 3.28934826e-02 -3.03500183e-02 4.84162243e-04
      -5.13622127e-02 -1.33310650e-02 2.53098421e-02 6.43607648e-03
      2.15240903e-02 -2.40245406e-02 4.30683680e-02 -5.29544130e-02
      8.86807032e-03 3.94001370e-03 8.14093184e-03 3.48842740e-02
      9.03159566e-03 1.09060137e-02 -2.06712615e-02 3.24153453e-02
      -4.91422713e-02 1.07846772e-02 -2.43632682e-02 3.57442833e-02
      -1.72819048e-02 -7.63224065e-02 -3.09049338e-02 -4.78104055e-02
      2.67975051e-02 -1.82656068e-02 -3.65296341e-02 -8.71864930e-02
      -4.42298921e-03 -6.83003524e-03 -3.28678451e-02 1.96694210e-02
      -2.99136955e-02 7.23952726e-02 -1.04911393e-02 7.57882651e-03
      -8.37326124e-02 2.65417732e-02 6.96612373e-02 9.02060233e-03
      3.86635922e-02 -9.81538463e-03 5.02423272e-02 -1.90671403e-02
      1.20358486e-02 -4.63039950e-02 3.69861051e-02 2.76230406e-02
      3.00572067e-02 2.58647706e-02 -1.41975088e-02 6.88901469e-02
      6.04281388e-03 4.18031728e-03 -1.45601286e-02 3.26421857e-02
      -1.82812233e-02 -2.19200756e-02 -1.96026154e-02 -6.31438196e-02
      -2.80366046e-03 -8.39012023e-03 1.36884777e-02 -6.52890652e-02
      -1.20004267e-02 -1.37966778e-02 -2.10525505e-02 2.31463723e-02
      -3.32379378e-02 2.77883857e-02 1.32112885e-02 2.44114790e-02
      -1.47218676e-02 1.49704218e-02 -6.17664075e-03 5.43517619e-03
      2.86884978e-02 -3.32264937e-02 3.39612477e-02 -5.25998510e-03
      -1.48227848e-02 -3.03603150e-02 1.69877410e-02 1.44944647e-02
      3.51891667e-02 6.69098198e-02 2.54745595e-03 8.08465406e-02
      2.75791362e-02 1.20966388e-02 2.55865026e-02 3.39552350e-02
      -1.89657751e-02 -4.56217080e-02 4.86264558e-04 -4.40315604e-02
      -3.89929116e-02 -4.59670881e-03 2.26685894e-03 -3.61024067e-02
      -1.40512632e-02 -4.95160297e-02 -1.90179311e-02 5.31691983e-02
      1.42805884e-02 -3.82604152e-02 -3.93461064e-02 2.38312185e-02
      -3.80573906e-02 2.15443559e-02 5.47769712e-03 -1.79082956e-02
      4.24111336e-02 -3.14449146e-02 3.62629667e-02 2.62118466e-02
      2.66009979e-02 -4.42609843e-03 3.77023518e-02 -1.48192840e-02
      -2.72985641e-02 5.03914244e-02 3.85947991e-03 -3.52344080e-03
      -1.08532782e-03 4.65901084e-02 2.32577734e-02 -9.02906992e-03
      -8.66174325e-03 1.12036115e-03 7.84966797e-02 6.76784962e-02
      -2.77036261e-02 -1.26965102e-02 2.86110472e-02 -4.81628031e-02
      5.07559069e-02 -2.77339444e-02 -1.06929252e-02 4.21773754e-02
      2.17877794e-02 -1.19781606e-02 -4.34263190e-03 3.77819687e-02
      -5.49599826e-02 7.31605629e-04 -3.78485881e-02 -3.58885862e-02
      6.15710132e-02 6.70309886e-02 -3.75466086e-02 -3.37511972e-02
      4.16757092e-02 -2.64775101e-02 2.12188973e-03 -7.38095790e-02
      -2.72492357e-02 6.52166381e-02 3.42461392e-02 4.43306239e-03
      -1.47556169e-02 2.73059085e-02 -5.33890501e-02 -3.15524749e-02
      3.67022790e-02 7.15775415e-02 9.04590115e-02 -2.52488721e-02
      -2.77936161e-01 -9.60281268e-02 1.00267179e-01 9.22765657e-02
      1.42820617e-02 1.78987719e-02 1.02373004e-01 1.09738789e-01
      3.55544090e-02 6.20120652e-02 -5.85245304e-02 6.06946312e-02
      7.62719586e-02 1.36271957e-02 6.60461336e-02 7.50519484e-02
      1.17701143e-01 -3.55614834e-02 -2.13572010e-01 -1.00623541e-01
      1.43842503e-01 1.79517865e-01 6.64160550e-02 2.13346798e-02
      9.27017853e-02 1.15786299e-01 5.25368676e-02 9.67280269e-02
      -7.13552237e-02 9.12193060e-02 1.32144645e-01 3.64508554e-02
      2.20868256e-04 1.98177006e-02 3.52834873e-02 -3.01547125e-02
      4.37604263e-02 -1.38160899e-01 -9.47610196e-03 2.75285505e-02
      -4.63627558e-03 2.62507629e-02 3.65227880e-03 3.24466899e-02
      -4.94186059e-02 3.79555635e-02 -8.15901980e-02 1.92672443e-02
      3.08100265e-02 2.36932188e-02 4.93546315e-02 6.76071048e-02
      5.33523932e-02 -6.80817440e-02 4.72185314e-02 -9.35131013e-02
      2.00080546e-03 8.90841559e-02 5.34520671e-02 7.43951127e-02
      9.10288319e-02 5.27317934e-02 -3.85783613e-02 4.52992730e-02
      -9.11692008e-02 9.35202744e-03 1.12352319e-01 7.90976509e-02
      -3.57381091e-03 6.53464440e-03 1.91137549e-02 -2.63944194e-02
      5.08470461e-02 -6.83353543e-02 -3.35747353e-03 -1.15945619e-02
      2.67227576e-03 -3.25006768e-02 -8.69636144e-03 3.32259685e-02
      -3.17884050e-03 6.92549348e-02 -7.16764852e-02 -2.52084038e-03
      6.03309087e-03 -4.19730740e-03 6.45541176e-02 3.71545963e-02
      5.34781963e-02 -3.81262042e-02 5.17028198e-02 -5.88243790e-02
      9.02140141e-03 4.70468253e-02 6.62627071e-02 1.58628095e-02
      2.87042297e-02 5.18389009e-02 -2.83761090e-03 5.12758270e-02
      -7.74155334e-02 2.34190654e-02 6.58691972e-02 2.49566790e-02
      -2.69325008e-03 4.59417561e-03 9.84245725e-03 -1.37960901e-02
      6.33965209e-02 -4.63756360e-02 3.63643244e-02 2.98619475e-02
      8.95182602e-03 -1.79406889e-02 -7.39258807e-03 9.10528842e-03
      -3.76540199e-02 5.88461235e-02 -5.71255982e-02 2.61869524e-02
      2.22569928e-02 -3.05115581e-02 1.56490412e-02 8.33256822e-03
      1.54207665e-02 -2.34711003e-02 6.69040531e-02 -8.16942286e-03
      3.91181521e-02 7.07383677e-02 7.55733065e-03 1.58256646e-02
      1.21560981e-02 5.15191145e-02 -3.39559279e-02 4.67030890e-02
      -3.03950403e-02 5.16898893e-02 7.46769086e-02 1.85243357e-02
      3.80537137e-02 -6.29692664e-03 3.33494917e-02 -1.38402665e-02
      5.51512614e-02 -2.44746208e-02 3.95438336e-02 1.05193993e-02
      4.08545788e-03 -8.74783378e-03 -2.60835197e-02 2.90081911e-02
      -1.09401112e-02 4.52027731e-02 -6.63159043e-02 -9.49943345e-03
      -2.41846424e-02 4.78110183e-03 5.17819300e-02 2.52142805e-03
      3.31931412e-02 -1.57863777e-02 5.91282845e-02 -3.32509801e-02
      4.68809940e-02 7.01482520e-02 7.79912695e-02 1.84385071e-03
      3.16737369e-02 6.32405654e-02 -9.17316321e-03 3.82621326e-02
      -7.19200224e-02 1.73527673e-02 1.02853030e-02 1.44137302e-02
      7.72171933e-03 -2.55334042e-02 4.29562666e-03 -4.19422649e-02
      2.76121255e-02 -5.79909459e-02 -1.62998913e-03 -2.56557576e-02
      1.11458711e-02 -2.25405581e-02 -3.73460725e-02 -5.53091639e-04
      -4.20921780e-02 3.80123556e-02 -4.70034853e-02 -3.19503411e-03
      -1.97401904e-02 1.89605623e-03 6.01147674e-02 5.41828498e-02
      2.26037316e-02 -5.55470176e-02 3.22949886e-02 -5.20018190e-02
      3.56925912e-02 1.28288930e-02 2.77291853e-02 5.83742857e-02
      6.97048828e-02 3.42000760e-02 -5.75845838e-02 1.02221183e-02
      -4.18884866e-02 3.52815576e-02 1.37779824e-02 5.06599620e-02
      8.88560200e-04 -1.79091524e-02 -4.49516485e-03 -3.02024484e-02
      3.70996371e-02 -5.22430725e-02 1.93909332e-02 -2.68054418e-02
      -1.61981154e-02 -4.14758101e-02 -2.05746796e-02 -5.12441446e-04
      -2.80081742e-02 1.91296451e-02 -5.50793633e-02 -5.02477400e-03
      -4.89953645e-02 -2.63474416e-02 1.94368120e-02 4.37129289e-02
      2.23985352e-02 -2.88211945e-02 3.66874747e-02 -5.98615110e-02
      3.47481593e-02 -3.98346037e-02 -3.70307104e-03 1.99332591e-02
      4.08490077e-02 3.02964654e-02 -5.60438680e-03 3.92310806e-02
      -5.45992851e-02 3.98832560e-02 -5.19595155e-03 -4.09439951e-02
      3.58367004e-02 2.19399091e-02 3.67335491e-02 -1.73415747e-02
      2.08221246e-02 -2.97412593e-02 -1.97982905e-03 -6.01429418e-02
      -1.09760165e-02 8.88857152e-03 1.00207003e-02 2.34579220e-02
      -3.22480761e-02 4.10035476e-02 -3.40949036e-02 -3.00770067e-02
      -2.37031877e-02 -2.26508025e-02 1.81271266e-02 6.81257397e-02
      5.32160848e-02 -3.01829092e-02 5.91582693e-02 -1.35511961e-02
      1.86819248e-02 -2.80665718e-02 -1.88894365e-02 3.85404974e-02
      4.27655354e-02 1.58752948e-02 -5.58587313e-02 5.32201752e-02
      2.26975437e-02 6.12723583e-04 -2.92370468e-03 -1.47649227e-02
      2.91197281e-02 2.85159256e-02 3.80913094e-02 -4.71828207e-02
      2.54456252e-02 -3.11038247e-03 -3.23229767e-02 -3.40717919e-02
      4.09145281e-02 -1.71340294e-02 -9.20046470e-04 2.73902658e-02
      -3.09718866e-02 7.59070665e-02 -8.30311852e-04 -1.81016326e-02
      -1.57988407e-02 1.44389197e-02 2.97727026e-02 1.81578528e-02
      8.50154902e-04 -7.44772553e-02 2.54711565e-02 1.19545767e-02
      1.93010364e-02 -1.14375129e-02 -1.94926411e-04 -1.84595119e-02
      -7.76584400e-03 -3.33657977e-03 -6.90868050e-02 4.42503989e-02
      1.96701176e-02 5.65584609e-03 -1.82060339e-02 -2.25646105e-02
      2.82338783e-02 -1.50321200e-02 2.14798860e-02 -4.88815233e-02
      5.09453975e-02 4.56700772e-02 2.01482661e-02 -3.95990871e-02
      7.43184984e-02 3.07685565e-02 2.49305926e-02 4.58356477e-02
      -1.57656148e-02 8.29309318e-03 7.74517981e-03 4.97954078e-02
      4.52307425e-03 9.02698785e-02 3.36953253e-03 4.84154653e-03
      2.25183666e-02 -7.46565089e-02 1.13885815e-03 1.67289563e-02
      -3.07634808e-02 -5.52401356e-02 -1.64644886e-02 3.52753811e-02
      6.36936724e-02 3.20441835e-02 -7.09061250e-02 -1.68556217e-02
      -4.78237681e-03 -4.31110635e-02 -6.64724857e-02 -2.57017389e-02
      3.63613144e-02 1.44426916e-02 9.10755470e-02 6.21565022e-02
      -4.09651026e-02 2.02344321e-02 7.19256550e-02 -2.39479505e-02
      9.17050689e-02 6.23823004e-03 6.66561201e-02 1.20900974e-01
      1.15112446e-01 1.23115079e-02 -2.91033555e-02 6.79133907e-02
      -1.24561153e-02 3.39892656e-02 1.49640068e-02 6.51340485e-02
      9.82864946e-02 3.78437974e-02 -4.18893360e-02 2.84006111e-02
      -3.27492994e-03 -1.12453721e-01 -7.86529556e-02 3.45920958e-02
      1.40590742e-01 2.06437930e-01 1.41643167e-01 6.45259544e-02
      2.58019045e-02 3.95904295e-02 -8.28506798e-02 -5.05419336e-02</_></support_vectors>
  <decision_functions>
    <_>
      <sv_count>1</sv_count>
      <rho>6.8540959792823472e-03</rho>
      <alpha>
        1.</alpha>
      <index>
        0</index></_></decision_functions></my_svm>
</opencv_storage>
